file_name,mean_mfcc_1,mean_mfcc_2,mean_mfcc_3,mean_mfcc_4,mean_mfcc_5,mean_mfcc_6,mean_mfcc_7,mean_mfcc_8,mean_mfcc_9,mean_mfcc_10,mean_mfcc_11,mean_mfcc_12,mean_mfcc_13,mean_mfcc_14,mean_mfcc_15,mean_mfcc_16,mean_mfcc_17,mean_mfcc_18,mean_mfcc_19,mean_mfcc_20,std_mfcc_1,std_mfcc_2,std_mfcc_3,std_mfcc_4,std_mfcc_5,std_mfcc_6,std_mfcc_7,std_mfcc_8,std_mfcc_9,std_mfcc_10,std_mfcc_11,std_mfcc_12,std_mfcc_13,std_mfcc_14,std_mfcc_15,std_mfcc_16,std_mfcc_17,std_mfcc_18,std_mfcc_19,std_mfcc_20,skew_mfcc_1,skew_mfcc_2,skew_mfcc_3,skew_mfcc_4,skew_mfcc_5,skew_mfcc_6,skew_mfcc_7,skew_mfcc_8,skew_mfcc_9,skew_mfcc_10,skew_mfcc_11,skew_mfcc_12,skew_mfcc_13,skew_mfcc_14,skew_mfcc_15,skew_mfcc_16,skew_mfcc_17,skew_mfcc_18,skew_mfcc_19,skew_mfcc_20,kurtosis_mfcc_1,kurtosis_mfcc_2,kurtosis_mfcc_3,kurtosis_mfcc_4,kurtosis_mfcc_5,kurtosis_mfcc_6,kurtosis_mfcc_7,kurtosis_mfcc_8,kurtosis_mfcc_9,kurtosis_mfcc_10,kurtosis_mfcc_11,kurtosis_mfcc_12,kurtosis_mfcc_13,kurtosis_mfcc_14,kurtosis_mfcc_15,kurtosis_mfcc_16,kurtosis_mfcc_17,kurtosis_mfcc_18,kurtosis_mfcc_19,kurtosis_mfcc_20
01-MFCC.csv,-237.71866170242245,158.86237878021254,1.75518867887902,17.29272572750191,9.288440401520358,12.593411001274562,-0.6576653228194718,8.882507947274682,0.0841200699784353,0.9332320138873004,-2.2641017988666086,5.113392567702698,-0.7696660754456917,-1.0340658276033137,-4.096893941679167,-4.660513342903946,-5.384974578011202,-11.506961123418481,-5.987862909933487,-0.3155566439200944,82.46406076107272,35.92447560635413,23.3608429857596,12.352781334607172,12.413296082107882,12.032821764152498,11.787104287664706,9.05127361801235,9.700676825114986,8.923525210150155,8.967595255664644,8.294548724814996,8.411700005021576,8.355919689348898,8.203469730994199,8.30652536873926,7.605794233133277,9.953865161536287,11.193200573777894,10.681666191238131,-1.1383166196419017,-2.1125813023862716,0.6484155617826743,-0.46550840997440207,0.07553519176755792,0.07596674215020034,-0.18138204421308038,0.154485172664229,-0.3288560149012865,0.10055094583109207,-0.22151454324352565,0.08352767388978276,-0.02940388980779773,-0.0872206519583442,0.3641995296742814,0.559088319722174,0.46265680108546453,-0.1695340667773233,0.3193789539633625,0.7493092089230279,1.4026863466145847,6.462854773775247,0.12271551369437184,0.6257685588470396,-0.1688062427479533,-0.15653480768201344,-0.2777083495498296,0.27290389983573693,0.21106771867221985,0.3149781201716486,0.17266338349278465,-0.35236291001093756,0.061187023987295586,0.1701208171081987,0.731721092260623,1.7074393852860346,0.8846473001115007,-0.17527454475064985,-0.01329755711631142,0.49076146468396376
02-MFCC.csv,-235.8437244865103,147.0838471126423,-8.683155704544195,32.9246656262499,2.9189753111560908,27.3834866926499,-23.358137278844364,6.7408657131795255,-1.851815223561885,-11.642129685780114,-9.470322224818014,18.184530021871577,-7.127946170260949,-1.8384884817370157,5.443003337833819,-1.547317649890394,-9.721859328333974,1.5656938023858356,-0.9246804952514992,-6.975264636465961,97.01461533238376,31.503646721273615,21.784568373803367,14.751868918651008,17.21857175307331,11.178349092006373,18.292908166744674,11.676800282973455,12.989545805187158,13.344873403577797,9.596868838708794,13.145170367701303,9.541138564276105,10.462233313160564,9.973306142965557,7.416407983428071,8.702114813682066,8.23029586689019,6.769514352775761,7.706548943274401,-1.558828162661831,-2.2261001185636973,0.35075734777666606,0.05549005099276975,0.11513323178773632,0.10060924657668151,0.5304215717637132,-0.24497462550396126,0.26415915933952194,-0.35004631489163185,-0.257036739492076,-0.032189436797366355,0.0936522993959315,-0.3409090609339476,0.06719765444423197,0.1703657628681108,-0.3746508735595129,0.24847199765535743,-0.49352570590689987,0.00599597368951152,3.1684687427477014,6.889551069651536,0.9581274239915869,0.5298646801097346,-0.46430919748452437,0.21403198689995895,0.301918000995939,-0.056180256623667546,-0.31169139454417394,0.02727248493130663,0.14171474951509078,-0.20670925422806974,-0.4341171693923336,-0.1385495594630286,-0.27753242640509734,0.1833548943008494,-0.13075445991063894,-0.038518062337722814,0.6214865915674563,0.12400979920375743
03-MFCC.csv,-150.18066295874792,126.28624116837548,-45.66007227126542,27.686528733936107,-9.114286124089773,16.048515355586932,-11.553235245729303,9.506453104957046,-0.10814661693880087,3.474982265597191,0.19438139445613797,5.121798000584211,0.573001029977178,0.5127206309540534,1.789387688869336,-2.23484292026802,2.2194518106482364,-2.696843001686393,0.7417359616173119,-1.3352387862067987,108.30558353164663,35.746090313955996,28.29365624475292,22.012269272107563,21.347659157013283,16.4631927208334,15.077688084196277,10.674038352927292,11.424138020676196,9.864643637564456,10.778793114546044,9.318823963157726,9.0976470285141,8.850251773505137,7.519822670371148,7.752603966293683,7.358786459217227,7.121599933545834,7.225797811350043,7.359269686457007,-0.7097685506399972,-0.8210898650685144,0.6290577924932772,0.08093882396039934,-0.10728844909279042,-0.023098646847397736,-0.15475909533135893,0.12612856434860006,0.2920549740689392,0.057629796919667055,-0.07936846406610537,0.3956454651379944,0.30746251085400234,-0.19374693347546215,0.3420603381274254,-0.23797327816033093,0.09529401829505847,0.08541791351312611,0.15712444957976635,0.408048876821085,0.12929114502565753,1.070182998459961,0.6244012217208548,0.1840794729660784,-0.24606709386385806,0.011944623936221532,0.2257263261058089,0.4979826142093047,0.5983009988843127,0.4908804954120174,0.4528009192820601,0.7755266147241642,0.5973415570952416,0.8505047939915,1.5285742357964178,1.3397481621139233,0.6269898008789516,0.6411625301937978,1.1606109819929777,1.1415006384775843
04-MFCC.csv,-250.22952076105392,91.38764727546024,-51.730820916700424,52.86267923684073,-12.547937414068983,27.3056432408853,-16.879980088590052,21.455667946430683,-8.26641765725321,6.6263750580328455,1.2492279097914658,3.236444080083353,0.7063469415028804,-0.867986675371893,6.860059164862563,-4.060022520562513,7.3970140559768875,-0.9899122337489482,7.066877394316061,0.5660191969885924,98.56035795510607,32.53786253912788,25.43874272459594,22.011871407027655,22.00683306357067,18.57947999653997,18.913559111487107,13.041650384958878,12.786715129655684,10.801712963239007,10.775509649548578,9.45034574753573,10.480511542826491,11.148312328078804,12.263267701882429,13.47641372234131,13.726365704382086,11.340525767900443,12.724703981683309,11.802735517501642,-1.9106495875535987,-0.26424315175839147,0.45714228790974,-0.822263725088192,0.7671772272419288,-0.26241547901818213,0.12211456046978655,-0.14089484734441984,0.5602504612781345,0.2205826964661858,0.47868055084362393,0.2615322998932288,0.26722290426405854,0.3334398528966422,0.051118195981257296,0.04935317716589353,0.04599720476257011,-0.02926609362806169,0.19254086176669943,0.26935003417476894,3.9560197848399685,0.40403026204972736,0.5307414538250286,0.9012875313075943,0.5139743374350805,-0.2682546082130557,-0.45421689621179917,0.2841766347881234,1.0760806003298136,0.7792121040581184,1.0945938497666559,0.8298861467262566,0.46549698244494264,0.20358415750293046,0.7957713364880794,0.31329915814571674,0.12627412429000762,-0.06310226587874945,0.19233254772761388,0.3673967331329355
05-MFCC.csv,-254.27760420761305,204.5799740739886,-47.36758184884531,6.151537940353626,26.69589807429246,-9.915818088784018,-1.4864531907991219,-3.4490710588491122,-6.206241928516042,-4.376030215272097,-7.4259785374510265,-1.7905361561513196,-1.9635361050371063,-4.529843139776146,-5.138658537600684,-8.205476071134504,-6.730092026587908,-5.033222124829981,-3.6967901294379546,-3.186682608037664,40.44297633510295,16.821805691131868,21.122957111524688,17.64259426205564,13.421746997441344,11.495448491741934,10.910299888553103,10.251155903334256,9.353168868524076,9.44704494832247,8.81694601585881,8.546553085944849,8.576354420043742,7.834651358810636,8.108230576063606,7.832724268615079,7.610483415204496,7.271216508350373,7.129638574726862,7.096241230929966,-0.8214775207995761,-0.835372017898925,0.4943133864838846,0.3307892783436581,-0.23887810663758,0.09515929270688127,0.42382693047972675,-0.23974785913269303,-0.10842045289151646,-0.12162398122033931,0.08509391718036294,0.11794836905128933,0.025626022389450925,0.11956163430373852,0.209701902264162,0.3089814223353015,0.202050847902593,-0.25848624459298647,-0.09773048879149461,0.054689049424906745,1.1137818183076722,2.2813395201596216,0.11319616256866327,0.4838227635287704,0.32710005365643857,-0.2170833338623992,0.3466791809776604,0.08676566710427291,0.0801864081807575,-0.20105504351361203,-0.06638916108868864,-0.08148620459888001,-0.09585778884015195,0.09836170557535961,0.1706016258799541,0.4196925025384872,0.2852650433486503,1.070502952898663,0.7603956868395763,0.8050635610977941
06-MFCC.csv,-186.38540886796957,125.59658245832233,-28.138238779595973,42.85435718933006,-20.53209138304267,9.098547657868664,-15.062285397693646,11.646199388418896,-14.744348957559467,1.0684415222186656,-9.197882681647084,-7.401391792249497,-3.5760305872535127,-7.5444171675044975,0.8762294741531332,-3.627154789629989,4.26048966709654,-8.426299960092173,7.056357641134569,0.43751520825209506,71.22693910501732,27.767965695825833,18.53623153117223,22.640653644170108,18.7834216335426,13.298541079069697,15.46663935120118,10.69271516595768,13.327093704699967,17.51625443397393,11.495066561126892,9.908041163706764,11.223596327931832,11.644765861162847,10.084696830243404,9.653030887302071,11.85430220355508,14.665602394566406,13.77859632841789,11.356515552292521,-1.4998503226790072,-0.8578675762379863,0.4325602953303181,-0.1582181870137008,0.011117008733733428,0.5850134335648525,-0.1716559934362351,-0.12924015262489036,-0.29716012077850984,0.2962978107064207,-0.028956080732459755,0.005652162627391768,0.18542211348681695,0.6192878173989074,0.8558357459375456,0.26324337084402405,0.10348586748698001,0.4401567275968928,0.4686253475872112,0.5326592202761692,4.951998179927782,2.6749349906231634,0.5043811019736868,-0.3911967561671674,-0.008884337355349103,1.9780866174643599,0.050093716712218406,-0.1254683788019233,-0.3202952122781477,-0.3307237654218991,0.21392730734347953,0.29911513735327366,0.13335438125360177,0.8659969217984886,1.5562183316540583,0.3126180470550577,-0.11255499933601332,-0.03313035449003232,0.12856203297225655,0.34143592811264156
07-MFCC.csv,-274.4519958414242,166.65253411051907,-64.70450817098848,33.74015913156368,7.699390395051646,-2.1386379876507102,5.514648363338705,7.013633245675174,-2.3952109526493044,0.7807166406327983,0.9674590738026766,1.6187333182531145,-8.936951054982858,-4.5249527561922465,-0.8627244293543744,-9.331088501207988,1.4200381758272607,-4.621646683669524,-9.151313730343462,-3.2942135126790006,77.5855952392085,31.070641154939008,25.553453242273353,18.21130869592906,15.791114254287494,11.78685632350827,12.940726882791552,10.576241725405426,9.720056389153404,12.370506847869851,12.026705055328005,11.007943862607762,9.458906911204295,9.466481761766053,9.457921453663394,9.17287533804344,8.912161863115212,9.43567856061299,10.313812657482499,9.30268594627599,-2.427519325332229,-3.4527723008079714,1.1210192668301304,-0.011068619844767707,-0.041764872281739286,-0.14115136143260743,-0.11173671174282299,0.06732484315009159,-0.0071888448126525735,0.17877360925189043,-0.1670112112828575,0.21055371947729326,-0.06441593206603592,0.06240315829830846,0.02000551850616416,0.014328944127209914,-0.08790155763391858,-0.1858865212404928,0.26107103274044785,0.38708748904166873,9.042510668257009,15.957940845328626,1.6180458099148964,-0.3563067791916903,-0.31267029964241067,0.02029659323258448,-0.23852216447507724,-0.09881832783137368,0.2441279435147199,-0.11935051250056317,-0.14930046123037854,-0.15634971444827883,0.24352346733860397,0.5836762213703577,0.3540402613833433,0.4665891649728584,0.772895489418107,0.2752356670660183,0.027280932048977746,0.366425488789341
08-MFCC.csv,-144.20637682320825,125.3911701635343,-26.565892589338063,40.71103307080956,-14.72171392832932,21.80421391180449,-10.327458665156259,12.090111863065971,-6.4799050216145515,9.75154631745444,-5.704589145756502,3.5268227959022416,-4.021372153747297,1.0088939804166757,-3.5162528811942666,-0.5275703622093899,0.1780932897319812,0.21199635721925225,2.156522629831625,-0.4809166771331085,104.47966511833692,38.75082026671812,23.138984196062378,16.343065628998108,15.98116059252254,12.87933542867161,11.775663668298241,10.886800706504548,10.367380941366914,10.608809009860424,9.800122110848127,9.95504455100924,8.37387892391937,9.043974140261385,7.901215220565459,8.31482389331751,8.106065461907326,7.93580091623439,7.666347373650427,8.044774303362153,-1.7093730121939763,-1.0470947011140672,0.23763069518492377,0.2860389887910345,0.23895509037174298,-0.32006898944893647,0.15749912260731203,-0.09020009916891841,0.21026653592050937,0.03473237269986478,0.07696856274118012,0.13242451744282877,0.03645368497916368,-0.09211346701088928,0.05304216195839113,-0.07459607540166616,-0.0802610555511431,0.04710780386321307,0.10547398304542298,0.21493548285542324,3.509320777995638,2.155765657953475,0.34610462398132125,0.6523244230548144,0.7596147840853846,0.12222069193581797,0.2600158349926409,-0.14752439115961868,0.000532695313063769,-0.013740736270127396,-0.008809265219737128,0.04237274378918254,0.5775920562566799,0.2991162965263401,0.315374580587501,0.14442597077438535,0.29872223063908176,0.0159098510530975,0.19862578160753008,0.2503591224384434
09-MFCC.csv,-262.479356047092,196.66309364508692,-67.14680301749624,-0.8448515379763945,34.50253461869563,-18.205024404872454,-10.262628180621546,-0.05381955840829077,-8.48354580894765,-7.546896484582474,-9.4433457005886,-9.495032224937768,-5.489535866123618,-7.103293160964952,-7.137121195847241,-4.331330980328182,-5.829325550434431,-6.556752914262415,-5.550672299400966,-6.562037547952805,50.72081781717414,24.566387370908288,34.38804898940095,17.56026027601231,14.287019976536484,11.910479938360373,11.118671685086719,8.594912874414794,8.739235064756718,9.439359777145832,8.63436451490886,8.713243826367842,8.732136236999883,8.30648412139123,8.66461451990928,8.312767880420058,8.06061854237101,6.903986152327724,6.472970697168662,6.8626484587757055,-1.6766519637213577,-1.4945845645571443,0.9046709235152273,-0.22783705767837747,-0.22390539385987335,0.5961890406178132,0.1839658128965917,-0.03027218784508265,0.17318257138531337,0.0742459432643788,0.5375898552117307,0.5298396457905061,0.32868490595932776,0.1337658896882992,0.058166118870355235,0.35244125984770575,0.4233165574598377,0.153358828996176,0.1131065803640223,0.35136506501433173,4.227823990806815,3.5925678396143614,1.1132760533421409,-0.4464811063318961,0.3819566691353886,0.2651181057295058,-0.048832730855542295,0.14045877987572375,0.2016906103874243,0.10591217088605065,0.8260825472031113,0.8158817406090337,0.6205570186874128,0.6925275528924946,0.7365170281180462,0.22653678980053282,0.835821726453466,0.3761057504328851,0.01010392102944202,0.6551492687949585
10-MFCC.csv,-190.55742535587328,192.93360966162373,-15.213036162732047,16.21895605235714,-26.91787714606281,23.6909171436048,22.871955429017426,-42.3262807364938,7.132794283718027,15.47430741509627,-21.514471639120064,-3.8943048180319413,6.066715488057141,-0.4266297013316253,-14.560533433637419,-3.763283851980326,7.473021515209894,-8.25330305803778,-2.3295342851814462,5.014559273510694,52.643049484111096,31.00056946568324,22.204087176338216,19.02536259345709,16.228500030727144,11.505707198726359,15.002818674726752,14.769244917191063,11.844652587943186,13.270604990334794,10.377292799326508,11.946106593594916,10.590019561017598,12.736267757147793,10.19556356191525,11.730059507024189,12.732150385430693,11.460082388391745,12.111946861918966,11.522991827417654,-2.108686901434839,-1.687871055545247,0.2752320492706959,-0.006309959330053235,0.4415878031214085,0.04671587505387492,-0.4146977655193399,0.3701400539211505,0.4235783221457635,-0.333393888223128,0.20020459256910447,0.3787936818345077,-0.04577236561351232,-0.09521081193421861,0.3339575509303404,0.15982506585401304,-0.09034234416226455,0.5096097104811801,0.7049472131280873,0.16130014867097958,8.750017924767267,7.834784478787069,-0.21150552080699736,0.36956315691466246,0.23490618657215068,0.2147014450360567,0.21758305202420258,-0.04918575799482161,0.42517802313116304,0.405683527443899,0.2577411393819271,0.18995608630616223,0.5208869237422751,-0.09056741401305057,0.6667491200945848,0.2763264325394612,0.4711566673299781,0.7031068423596611,0.7024840348620076,0.7127589441682916
100-MFCC.csv,-273.78716356244416,201.3564669697304,-62.71363430209114,-12.375645595330184,44.06129132458556,-9.08580565367926,-17.985152856113622,5.606873693022284,-1.756856074460305,-7.646543144843761,-4.142893768652842,-0.261467333023903,-3.065206912488121,-3.9137085459355543,-3.554244120367324,-2.9412227861074602,-2.252978077783516,-2.266244156249059,-3.4693339669132492,-5.12753435186778,45.73865903880793,18.16314265125297,24.347209513692015,14.106388154437742,15.172729070448183,13.527742915779257,10.541645934648082,10.025914382334268,7.918066594355088,8.225014963274427,8.433518780127875,8.15950467003355,9.078065124444484,9.652365035803877,8.545341491632849,8.532096763006775,8.42837459363468,7.596273157576466,7.025811759740052,7.0577260386288545,-0.11223923215560277,-0.59953250626614,0.27656775128071726,0.2959039783304956,-0.2590284086113903,-0.05499927383847566,0.26996640975951713,-0.16844013023230328,-0.1379816188329143,0.0925381507443543,-0.03601316300446999,0.18496659689929973,0.45236838569327276,0.5746437731305367,0.05030420061636744,0.10561819567298827,0.21192144150567743,-0.31221423022852124,0.19595781960932057,0.5782927018021553,0.19450539373768372,1.3244531757849707,-0.24883144417683223,-0.3548148876328163,0.29166843242271545,-0.0069663981361727245,0.21143953976505347,-0.1868564281001155,0.25364434281177495,0.06305897007783656,0.030299842648812803,0.15233882741801574,0.9592910389231295,0.562968431207155,0.03688224239927873,-0.1549671497234142,0.7687358577161261,0.5233608479478926,0.41163584795995645,1.2016181562911292
101-MFCC.csv,-249.00047170999633,166.8911619694675,-64.62792756603734,33.455028381919796,8.120456112144305,-2.603316728861266,5.925979886828891,6.651478060815235,-2.1453116224963167,0.6490260723064412,1.0405316507384141,1.646497934328857,-9.019208935719462,-4.492607296792358,-0.9556459133464279,-9.290628750917172,1.3443336467693487,-4.568869891121463,-9.240071530448656,-3.2459400001499548,74.47456143191242,29.638100857830327,25.269643428923676,18.201475470964198,15.804306294562537,11.807810949462144,12.98023461823113,10.605870867948227,9.74400172240553,12.41360199851678,12.044194478990079,11.041851477157772,9.46164980315719,9.48006862893505,9.507139786619211,9.169860184400687,8.935570202212167,9.474166545982708,10.301207662232306,9.323276868524214,-2.35178084844517,-3.4941207822494285,1.1065071564114675,-0.008780006129696245,-0.03837953885905488,-0.13963562537799057,-0.11517294265614605,0.07087982781384625,-0.011403944586692366,0.17579883588976292,-0.17520901788505946,0.20810755309337378,-0.04785531268543938,0.07806377205063154,0.026477855977290802,0.012191152321846865,-0.09815268272615425,-0.19424835339518004,0.2610883233110762,0.39900936084967703,9.115652009773914,17.19614503450907,1.6191457522645756,-0.3542214814919422,-0.3209306092873594,0.023751834454916576,-0.23443876547150033,-0.1185618203949339,0.2139928264433415,-0.1164411721172054,-0.16093778915258738,-0.17040553377764311,0.2802244336666062,0.6187437145102792,0.38349659115250123,0.5117481128899986,0.7817949205928589,0.24879138204744145,0.022174279042022516,0.3508700839756971
102-MFCC.csv,-299.24282115851486,168.27462727572112,-62.39687787967248,25.638805031894517,22.69674467279845,-17.575042735020205,10.652851297873466,-4.769844582274418,-10.94585584037699,-3.802581000873104,-8.213813889782534,-3.4116258746338546,-9.693541512976857,-10.088471588722271,-3.955745905727805,-7.061202920451654,-1.6047991306823828,1.3249884574258914,-3.80963096484089,-3.5651587016541257,46.816586971395445,29.33445114645,31.51452030872819,25.61204179967478,16.71338031191871,15.248256558582444,12.78553093913022,11.745150864765204,11.371546228236086,11.405921398167193,11.816096913297843,11.32665508703057,10.825506835618226,10.848532554999874,12.663641086674113,14.300293674131499,14.409116460600071,13.91994556909586,14.727814381366898,14.21445826886261,-1.4706021914214826,-0.15152343910532173,0.6595622479174814,-0.35230063041082726,-0.23625947530421207,0.302085260301361,-0.20790838178654183,-0.08909177927663861,-0.0792780260100666,-0.16966411705624862,-0.09204869505755656,0.011073527240217509,0.08843644572518763,0.7083915015803162,0.8106786542752018,0.8469980273502973,0.763876750580454,0.7106191230762233,0.7530379833810151,0.42451206525600504,4.710303692575616,2.1345676100196984,0.18806608378710576,-0.027513631735666344,0.15148282607459906,0.23888266287054938,0.21077109233193703,0.1126213248055361,0.06354414922141327,0.3881306143044112,0.2622923512057951,0.1278679610568303,0.49288659019206227,1.8746350694697753,1.5625132756893398,1.1886399273367205,0.956191640400204,0.8179950162683602,1.10434890866682,0.7927386760813997
103-MFCC.csv,-192.36825298963183,111.91119736655857,-9.713345551362837,43.87446231667132,-5.84302411454459,25.604707807412552,-4.930209536021368,11.69462003450348,2.119245546562519,9.522237785404204,-2.65088440700235,6.812910372395733,0.49779264892601893,-0.2080276599633697,4.056976177818633,0.19070228970527586,2.8845182931214732,-0.9339502990694583,4.374451036465818,-0.8135781208925325,113.37892345800775,42.15103758180876,31.796110141931102,25.012736003328712,22.771433753423658,18.476167990542585,16.95474230485128,12.163888031001429,11.302654003721223,11.26604794339084,11.1487172895181,10.278958021273947,8.243606015034503,8.507817647263169,7.863967114057042,7.918333437864897,7.269120814347453,7.454046008028833,8.142717587172077,8.697685790236052,-0.8850152985331402,-1.162252685406752,0.5729942720711779,-0.3593281322904993,0.3216272702608075,-0.7532553979919177,0.08637923252788056,-0.14626194895379951,0.013371045735380598,-0.3555150711336058,-0.07357379654356229,-0.024101500378773656,0.05332759955705638,-0.08513625889893583,-0.044046063957288904,-0.00743589321881373,-0.16286772586207302,0.18307001062271147,0.2729014195549282,1.0410978534696451,0.1990544686178457,1.7183832319054075,0.23349188881752703,1.1822139150221598,0.06360244372698576,1.6902640057315472,0.003990755646808175,0.18219161309755316,0.23623213775763707,0.2948293038216807,0.0537518064001139,0.44693783728313097,0.24960594348351695,0.4696155272367384,0.3321867603892281,0.2848824041956455,0.276965515992492,0.2848698898902704,0.35557892181667894,2.7615127597238263
104-MFCC.csv,-179.18079559943126,139.6301558001588,-17.536616011085297,41.197509254390546,-3.8896181980089835,9.178953237455797,-10.614070255517557,11.215174801685055,-9.411103099471934,-3.671835810090087,-2.4097403207973858,-3.8944889660396984,-2.443553124060243,-0.4565926787262441,-2.666836535012236,-6.024030318345439,-1.8722998838957166,-3.870153419791883,-1.5095239612459421,-2.3296057103639027,63.09742106934041,31.399092670420636,22.45345293988059,18.98287143320806,17.376617494897314,17.760763149063738,16.17802188734865,12.786110200408407,10.545078237777997,10.968147541437396,8.661794100050654,8.937677476971835,9.485463875731831,9.598587410880212,9.326304890126131,10.618757776695105,11.71878310622029,10.290996668768821,9.42425623849684,9.870079979159902,-1.961139238571898,-1.517789315317803,0.059412983377040554,-0.009269509681322603,-0.10021073172011256,0.2317418725418056,-0.3020455777151153,0.11764638220632823,-0.405527970859624,0.1765758560347247,-0.1539462981736756,-0.05596783859735409,0.007175560530299456,0.29765259999778876,0.24115422549345328,0.6322043369601409,0.8494100161288729,0.3451359422654915,-0.03260320398869974,0.5617808103078102,9.270844766916538,4.098825232080893,-0.185477505149223,0.05651393102988633,-0.2614929015455978,-0.19668378846564094,-0.45680583631294036,-0.1951542280481191,0.43182120770580035,0.61616991658406,0.4447601819084599,0.260963581348415,0.24994657918198904,0.7418634497397858,0.5128292032162141,1.094504906690624,1.5442751537027557,0.8295858582521496,0.7347580853541369,1.0343911085336646
105-MFCC.csv,-321.78905867244737,176.86629926208687,-24.181390978098,7.84032393727868,26.076428355971352,-5.311937099719981,2.226931726220244,-4.19439589297065,-12.839254773302951,-1.9724950356765667,-4.23793352237384,-12.219895949277877,-10.071523721927145,-5.097301734321644,-3.7497506124885502,-1.8997971311968271,1.9656697758427035,1.0553376354751336,0.7082667462380141,4.073622998330204,43.92630011315117,26.79263534342679,26.749276613060104,18.661371081387767,14.961421339161975,15.341394509976777,13.924125430575124,12.523339110919194,10.732269982937918,10.609451223877759,11.931990581211222,10.500178284125536,10.635236312229864,12.555151352110997,14.770017238179305,16.871550193163824,17.742177685721668,15.406400230864431,14.492755296167521,16.45936812917471,-2.185710804780227,-2.4316199129536122,0.41540059675083707,0.78202797656267,-0.26795017354059786,0.003945538778188269,0.18105240249355004,-0.43342914032127333,-0.1612585340440321,-0.03727656390133443,-0.11060966550770537,-0.11322218240032159,0.3981991683071752,0.6162168887164519,0.8118492464384793,0.7372647631295223,0.7780764764938527,0.6994838981152288,0.17983051698946328,-0.25387954993354755,9.16105797729858,12.804050565374016,-0.23426726063589065,1.2042783476856638,-0.13609281908827642,-0.37096196451684493,0.21773618080530044,0.21946483736417433,-0.2526056448227618,-0.01761890172573466,-0.2661121521707752,-0.37372068685929927,1.120880998621299,1.143880432946803,0.6625974903487335,0.15637433863861627,0.4557219474019507,0.6697814975348786,0.6262274627882589,0.2612705246856346
106-MFCC.csv,-224.38594550471763,154.50863481401157,-19.566465093683398,30.075870632414624,-9.324554616051564,6.658399064830974,-7.981512074692342,8.81477499557539,-6.016466959554082,-8.407490756466148,-3.4798821676235594,-8.413814017199137,-6.9163105974520365,-8.435210185083239,-0.26922845517641014,-3.6056006144231536,-1.3091532201236977,-2.2034278288852285,1.664655137505734,1.6030846612157388,64.3555634231824,29.61369574805992,21.66255395863878,18.923564864988847,19.866478130485884,14.215392846467685,12.00790190502471,9.41708927821051,9.282472112332847,10.29918101657248,8.970254203205318,8.426807138748499,8.505545548236627,9.395727657706393,9.115583776642701,9.210515784305958,10.195594655508582,11.895620868669589,12.877161384894823,10.38679076908455,-1.3696065134213298,-1.7475488699541097,0.5379155202170343,0.2591738629825247,-0.18365465576857964,1.097079066136009,-0.38064079858773836,-0.030043364293131935,-0.05130102273384938,-0.08563799009710149,-0.131855744335471,0.04761005829510851,0.06162502324560333,0.7152298809709687,0.8180672501579186,0.3929381036607005,0.729528388540948,0.740323484083203,0.8434495045491837,0.4747734849202048,4.797031593325708,5.7829233416208625,0.2749383845795714,-0.1859368393844889,-0.3587860212172891,3.2467084848820518,-0.03461337344185367,-0.16416952865663692,0.09856394561820592,-0.002085595588448008,-0.004734995401014075,-0.010895122605191432,0.3202785021438448,2.356793400644257,2.085903717681611,0.6381309855723476,0.6888561855051871,0.5895903314878286,0.641802248833208,0.2574175583694851
107-MFCC.csv,-235.69269012113668,129.0484230487251,2.7272091072786777,38.13747432924699,-2.5429896734085156,13.58189511824945,-14.773740252173104,7.218298051778746,-16.439667773040206,-1.5510042305981087,-13.573368648497643,7.574417422101013,-5.587443163901153,3.816599139642788,-8.305103560185083,-6.6793237650057256,-12.710629458244709,-11.001516941583633,-2.9405429228597764,-8.261320296529853,87.25837330005614,29.622529812671495,16.904196090764113,11.58064355805187,12.532378720493396,10.65285059582762,10.201442728361325,10.630507729846862,9.838137314016103,11.771279710685322,10.227407098215787,9.736128542049373,9.460986224512132,8.608031369090158,7.654359273775814,10.080214246453725,8.340958674321628,10.495885955212568,8.983698845663124,9.34635627711744,-1.30406378590096,-1.5004028227887038,0.4149374764489056,-0.7078036617582119,0.14644351073196532,0.1659242348745063,0.15792019414856176,0.15500063027956063,-0.07510063072076621,-0.06638265255179528,-0.4632987757249773,0.07305360958292396,-0.18516814353027183,0.13943936210331834,-0.11112171959142798,0.17493837568293358,0.10347394596033944,0.2764362829808444,0.9038192884956242,0.38276579745214173,3.1285038077322116,4.729508066997646,0.9589744435462921,1.344398723445162,-0.2654985353145154,0.06688789385013161,0.03812825366361272,-0.4099095983739307,-0.09001343831701458,-0.3364179780720238,0.22842564278092103,-0.2910331629425884,-0.06570252459100834,-0.10934087412138238,0.03355103879641774,0.1986370628888734,-0.059869999517862205,-0.05428101518500483,1.184307965267552,0.15812883449148218
108-MFCC.csv,-195.4973555553485,118.35905310422807,6.240523838211489,37.02985981394708,-1.967978098840049,21.487969674217968,-3.8674211138616275,8.02437875000528,-6.300256873166134,3.284708703185238,-6.69722182668135,4.078170052725295,-7.586060619693944,-4.5298018459225995,-7.095686342362718,-4.750848673634279,-4.89915480542019,-2.6173294982660065,0.3029639467010712,-4.18781788109959,70.27454428354618,26.27927768485664,15.609480021474761,11.886290665984506,10.392567789004461,8.835675790756039,9.783391213715806,9.485768593569718,8.205342648207068,9.413549141983212,8.268737071185438,11.496140554307985,8.732355624170978,9.858965382337722,8.29004128300007,8.784306253490906,8.935356133227494,9.457780194608901,10.041691624076147,10.780808703068747,-1.8084188052123034,-1.8034518975819855,0.18865770566961396,-0.5224629393683423,0.2982100065510125,-0.18311695121824179,-0.04929537102837806,0.14512914029336407,-0.03057992682898593,0.3632297185478594,-0.28258789072048607,0.5912663811061737,-0.2408659111430129,0.5273239317853732,0.3814409055047559,-0.04531538460448801,0.3482593149898029,0.22874042741760492,0.4572336139727288,0.1499587749384574,5.096192059825925,6.8627181836007525,0.7168761766533085,0.7544386888971042,0.19520913292083852,0.09208824392522308,-0.11221601643313228,-0.22901851795790806,-0.027999413398221318,0.039700846475430485,0.08190985989329702,0.09965004830762014,0.1395548874604482,0.16663187115150047,0.5271231374734362,0.1412313045685698,0.4054067775901138,-0.10250108412595393,0.12655598118805234,-0.30274977749038356
109-MFCC.csv,-242.60892658595978,132.6101686127104,-45.974951024222904,44.299447201178566,0.5545954866947366,7.271336495332594,-6.19616562491753,3.7366541008681855,-6.865593872671049,0.08250604422693515,-7.7511866293043346,2.2696636874500937,-12.46937831708694,-4.681725850427552,-0.7963041340821749,-10.888273522658833,0.1135991920546106,-8.707148211773642,0.4966878874813947,2.7704916861189623,74.34734286074145,31.53355764295185,26.40740665267454,19.46958498201321,17.547386218458172,13.305123833243357,15.131211711255327,11.755376131077366,9.571315093993226,12.33156915993591,13.688126905975126,12.179186266304745,10.595830564189347,8.83265835063079,9.869663153330603,9.943137692808781,10.019519806171033,11.080494774479774,10.174715097724201,10.920522319637014,-1.7062064859349009,-1.5170177322939682,0.45037471008225627,0.04031108469681585,0.012957296472747373,0.6987997554561372,-0.021330009477558132,0.15087321143566962,-0.216950534396096,0.2652443515666219,-0.2193972529255231,0.20100511861546871,0.14696597487195318,0.3442154764337499,0.27197256470341796,0.20299763800245713,0.33519520111645007,0.40351987110730625,0.4748961810587381,0.1348028179525689,5.983537008683603,4.229958033247083,0.29226251536134695,0.2550841938201862,-0.1975115684195834,1.6629278032204335,0.037537995139508507,0.2939645934265429,0.40204678280694317,0.09550379026278266,-0.06216240962809971,-0.3021781003387951,0.42266692864986233,0.7173922973222333,0.8122326183484874,0.6027466066116487,0.8972081527141529,0.3210448161689654,0.3216292429421168,0.23800697149075978
11-MFCC.csv,-183.53098410685328,119.3190690118757,-55.60060715805056,55.883737220281304,-0.9497220755037413,11.837482780085475,-0.5050063943772477,13.019295401036926,-12.293830275657598,-2.961638308850598,0.29992909819154157,-2.751924964492445,-6.417708833415416,-2.3321425668895532,-0.015117447638538504,-7.7377681366059505,0.3205225327865613,-7.171132325840244,-4.60202062416301,-1.4585453721177162,76.1554548258969,38.44659480001926,24.077436618867466,20.32999540721081,19.41004007794005,19.011277423422246,13.41077085207937,11.420532416207502,11.03114499929436,11.122386882829302,10.028926120314553,9.620010436007234,9.291130262903323,9.40983097588225,9.325538736344452,9.067468444918523,9.722473690671402,10.427610254717248,11.36835210454254,10.86999826810917,-1.873091870704198,-0.6336326391231317,-0.03204590961011591,-0.06703911160855064,-0.15511953773291817,0.16200858303419738,-0.04725964849095047,0.026267409875142544,-0.10184568412613514,-0.19451963660978036,0.2746580149193555,-0.24712331968198908,-0.11795628495620122,0.17401037864016966,0.2817067409465646,0.6042469827604067,0.4941900183739337,0.9115729781728726,1.1458818233991033,0.5657965738296671,7.092309533824606,0.19254553073977387,0.44021095725834636,0.44507780501679406,-0.07033457035877788,-0.604554065002461,-0.21352585587736206,-0.05496310353699707,-0.038105962375001745,-0.07607921796129524,0.2487401817887709,0.1951872398361929,0.1170388335293322,0.2019286657629107,0.7162482958727434,2.5248753208898154,1.146290638469806,2.1757679878152145,2.544463369637063,2.2266353155254577
110-MFCC.csv,-216.66597087744154,160.63948353621203,-85.3036646372218,39.62193793751042,5.02155487446185,-2.1714290622876216,4.24802843005492,0.37212705983821026,-2.574656696864697,-0.937116182776384,-5.270299061997117,0.9780035434812716,-2.68093840259373,-5.131587568051447,2.3999300943522597,-2.0214970669447596,-0.06986156768984123,0.07879247344248626,-0.900160614188809,-3.80955886282458,91.17876437875094,36.25554306256531,30.173154838221926,23.216248723673996,19.07778673338358,11.007392846044237,13.497115988562866,10.131349065007646,8.845021906876768,8.621498094979499,8.416218893949637,8.648212136175223,11.180368647230463,10.468608086721268,10.267538890229199,9.945223757640202,9.299991708210552,10.661829935561805,10.083526503399913,8.573731318168074,-1.8714920760807883,-1.361220235496638,1.5464203251768156,-0.3998178730268164,0.3073379188740746,-0.15338016054315484,-0.045449413053899566,-0.2044734383384299,0.03412983780144889,-0.21161944765204097,0.33344975222044054,0.8895959369578889,1.368562596781352,1.4411168747311764,1.0146397410706192,0.6218250310778243,0.3425397205828184,0.8281419084869781,0.7573579456115636,0.07723791017969316,4.7431113319889615,4.401369126576261,2.7601040848116267,0.21899934378284058,-0.5015957886059739,-0.10805564275481006,-0.13091763714974514,-0.05648627630772873,0.17066753192596362,0.40559410427334264,0.6384978914318582,4.096937547042026,5.69465180451448,4.625230565856013,1.6416074988580909,1.1101246196071979,0.5655902881026504,1.4967823123857555,1.050905239818102,0.6417205307992391
111-MFCC.csv,-288.89716085321976,214.3286166977869,-51.99884895461682,-28.166656624580444,33.688046784976656,-5.59845336034239,-12.533054102102433,4.286872509636091,-8.856321467484552,-11.915167986110726,-3.904314452869003,-7.507768853161479,-8.397685952343439,-5.597562869221383,-8.033307627565051,-7.914481305306429,-6.263791617394287,-8.301330834784858,-8.260034983996636,-6.194607592002456,38.810932697149205,25.943081770439864,20.005242887307656,12.689707413845735,13.554682788100642,14.710536332338819,12.571650180873263,9.738749301471874,10.496712503533642,10.197330744807243,9.909513062803535,9.576947095091576,10.06403560144578,8.90590692778445,9.617972509123398,9.077519083003972,8.194517429131642,7.574068923284626,6.8082756611660376,6.214750063370387,-0.45280684463993054,-0.6749316894004972,0.39664203579747964,0.405126650449012,-0.022198831471131483,0.6650124477020926,0.7211744975750204,-0.2705204736551271,0.5952377093987844,0.612928192188236,0.27054890009593113,0.5443289128750295,0.2960439642972127,-0.035748335703018885,0.6209170199095911,0.26337668191981733,0.060595264529012365,0.11999547017452877,0.14212841983510938,0.11162197191534153,0.25201654914311433,0.13090793027701064,0.3959831305115178,0.7996366906462979,-0.4549300398717526,0.018112547984905802,0.7507442107503111,-0.10206307339298393,0.9163351961036716,0.7432101353971383,0.23351601582398196,0.6829400651134585,0.22876130527589433,0.6781652670775822,1.3099966342111848,0.26234648258831506,0.3976886146785805,0.408734063414983,0.33584473904171297,0.43986548193923714
112-MFCC.csv,-168.65406363105697,120.39879962013912,-51.982064437688884,62.12292859118919,-7.443176801387357,7.895172503957531,-0.04966115346997078,2.746647030451285,-9.32165235137216,-0.3672806751178962,-7.375366268011105,-6.465914902481838,-9.725398814111205,4.542660639694494,-8.63400871110816,-3.2035782836628686,0.8871547611322363,-4.519141879491909,2.1235487712299657,5.150478152644408,76.44839728195619,27.38816057913504,29.593205290896442,18.976602181623104,20.513237730144517,15.662900724459838,19.538055645999435,15.700359761970265,11.733253922727688,11.396887412645107,11.256557294432344,10.779325174102205,10.183700532592985,10.839285379975223,11.330335967483895,12.137100170276204,11.627394176070357,12.749223815538523,12.372515617772107,12.965766352667663,-2.771728041572239,-2.111098885060334,0.5818547283682247,-0.2747308224880797,-0.10186515783808883,0.46388253364573234,-0.10056175614591756,-0.4826169529156605,-0.462849252367017,0.27065973585724445,0.050572487939898145,-0.22113709557357283,-0.05976109834010003,0.5561560486920661,0.3005015779065233,0.6443747479886367,0.36063265238788533,0.0202962838276918,0.08573370890806734,-0.22056635648153067,11.056007831378217,6.396840478894468,-0.33509808950585374,1.877401794389114,-0.13524668644036497,0.43962188624015264,-0.3726913899395239,0.3756577413050599,0.736728689588281,0.4214860676498695,-0.2052289699031311,0.028610623300155513,0.2358504078347865,0.5278609086094304,0.9331375912318953,1.1266780197932733,0.6059608975106947,0.10077663077076782,0.1870638436572678,0.3530376306515093
113-MFCC.csv,-167.87662139420607,115.05270959900935,-41.86506809435111,54.09618339882221,-14.122588451300489,10.78085546057685,-13.115446476161125,13.095929549787611,-12.418333981883494,4.139383291544026,-10.044515367522353,-0.14222724476888002,1.5071624706097115,-5.320268642107927,-2.185936247647502,-2.8662914342734256,-3.4511729214344515,1.4824945346119422,1.4725025312467415,-0.9002433405007907,77.53048693905586,33.06580408353477,21.804510196335794,21.254376277236215,20.39143136218687,13.952112199447713,14.582556025680523,13.836932005260486,13.296702874229277,12.293376729856416,12.462055287342437,11.877971573846583,12.45030669916549,11.76715932365322,11.569644101609295,11.492532735147158,12.231454505146727,11.008773051657418,9.263320345243045,9.772045109841658,-2.392040796119495,-0.7699733806416974,0.5933599431922916,0.08149308151730297,0.2098598130002266,0.0914475826375366,0.3516025188949826,0.28297060918256484,0.3446928173054904,0.06994440683866437,0.05442152839549199,0.4742770691935209,-0.02475700289961393,0.20280526622296666,0.08367308332062466,0.1902156595109519,0.9148165638993268,0.7352995555245929,0.22895446308910508,0.3935758928400096,9.091026473083872,1.0736653413743142,0.5503653614217505,0.013572672554908127,-0.40277641440291845,0.08957814926728469,0.6213806744168564,0.390685412976151,1.0172421687501276,0.9340918487951502,0.05768701833058154,1.0458752525810353,0.7366517659200551,0.4286109921145176,1.6597285992945028,1.6611702633954226,2.147900456556797,1.7108767416780455,0.6544156309751954,1.077912085707283
114-MFCC.csv,-172.66251892903952,144.67929272872186,10.357488899795356,44.93481246139381,-11.137969652831451,19.137407318871663,-9.315156864023235,8.635800628169404,-1.103593226236793,1.1482362616986208,-4.808143795728684,5.608489045083955,-3.599040899057078,-2.7781015283934427,2.3434893769670593,-5.241397174547533,0.7278173919225358,-3.075689974720643,1.1709672740711121,-3.6288269183568787,91.16859532077112,35.57353353548647,30.13603219256342,21.66794150451015,17.488774993282355,13.823799906185188,12.998789030319223,13.098835232841532,12.002910523723378,11.797865538642284,9.743469053900403,10.116467477232034,8.197837000721073,8.931578757283976,8.10186141891982,8.136844992925347,7.150679511478001,7.243352316631096,8.358951700733916,7.558448186368706,-0.7858096481816965,-1.3114065106144088,0.010186641696892883,-0.37131131237133125,-0.17743241664325793,0.08296257191426262,-0.32356856901031406,0.3101785149592265,-0.4447583874694092,0.36070194956442464,-0.3148227363066729,0.4934297323764941,0.03713784696365694,-0.25926123833543624,0.2983387798244544,-0.020281943846158494,-0.14344477674448694,-0.05280453892943611,0.07175590869632893,-0.08999379547503615,1.2006661692748257,2.324337507807391,-0.1439688174541618,1.1554525088016923,-0.28876648415179806,0.3963264749974682,-0.2130969537728813,0.4763825437836382,0.15942282875094715,0.08749108729993837,0.08351103686548456,0.43786670488437807,0.13987981767581203,0.265468615139556,0.7722064755470424,0.5957161950542091,0.48998372727999406,0.4809256629709413,0.4348460949927593,0.06204739974106088
115-MFCC.csv,-257.2657543996345,158.38112316161528,-21.025812014358788,24.797196846424832,8.964246751268348,7.205622262250465,-3.1166038121293824,1.9454681866813086,-2.2120245603923956,-7.26022871865101,-1.027406455863822,-2.0465036301753945,-2.680178623715453,-1.6267556422361922,1.7713381307130496,-0.4508234484988362,2.5277654324937004,1.7010207301848832,4.591745069350353,4.9852122541409445,59.41204176580381,29.312932185260927,28.94936890915956,23.432163948482916,18.1513887028988,11.38317125097917,14.967296224432411,11.39640194816154,8.63716294962661,8.57677674435988,9.034395306029952,8.777309663606992,8.602517186521679,11.790478519537816,11.401264811313213,12.000203637626965,14.122144346637754,12.35020280481801,12.993398325141225,13.77667590125935,-1.1152139243759858,-1.5647296032063756,0.10999460917716267,0.05464125332551268,-0.20249117650458337,0.14748952297837092,-0.2537659290683257,0.08219519580794067,0.0725145767484667,-0.025014811538942135,0.33018261727432163,-0.01056085539952056,0.03350060500206286,0.7176834681140226,0.9095659935184996,0.8039734145773749,0.9303118235972838,0.29443480834827745,0.516588529788126,0.2861357996966837,3.7057911761981868,6.317478685468535,-0.44589357686040465,-0.08141815194415525,0.2766260447186788,0.7110541561858006,0.30245422738615835,-0.019753490783610328,0.1636417222693285,-0.07514678822345466,0.48355348880592697,0.2896001935068617,0.35402102058159235,0.8643274604703719,1.4650911455034703,0.8796546811177821,0.6863364475431637,0.14757725857354265,0.5623953040999599,0.315873656784321
116-MFCC.csv,-446.82791785608896,147.43990009286765,-11.771916271599531,13.113227446651338,11.845566347529079,-6.243413910858607,5.906643281345776,-14.1244542154747,-18.59365917369336,-6.9340992420863365,-13.152136957249539,-5.314703201451215,-0.4471906365880447,-6.096501617575731,-0.5163293256266444,-5.165573241509227,-10.603869803826267,0.41633048246355275,0.2658537727818958,-6.877366870180773,68.8423400289926,37.23887106613893,29.319043881666932,16.823530621166263,17.312401710430745,18.752882371254877,10.186958480775662,15.13747891689009,14.785542176840503,9.451754815775672,11.237790619492218,8.924477544959418,11.790770673703287,8.218959740446685,7.194787702201213,7.532353684321146,8.596888919071745,8.093479573072196,6.671994359590288,6.662443564203195,-0.6292938137128588,-1.2626798264981043,-0.14673949025700364,0.6219592617954744,0.39535954189859907,-0.42874346644599237,0.1890950590521799,-0.2756647665057046,-0.24617210675197654,-0.07522693488686487,-0.2590381529923437,-0.23481172789777377,-0.06888611309328427,-0.30813129204197104,-0.3291838830911792,-0.1007976223436691,-0.16882242137162673,-0.0875929828223592,0.07561399486255754,-0.18382159746152527,0.573146477677303,2.1300790003554932,-0.5019004527424191,0.9724846963354583,-0.28801924393083134,-0.6451200605060143,0.7695434352675594,-0.8340997083477122,-0.7231694123473646,-0.24445513749480385,-0.558356912573136,-0.1565256355510325,-0.6691652054062698,0.07303543885931862,0.39866078346370637,-0.048626083352812266,-0.4116481201383895,0.5592226523716448,0.043738310782308165,-0.0037196797303029605
12-MFCC.csv,-236.78548678947936,129.07167511550216,-36.24598961966337,47.1322563352165,-5.9269265387887105,18.67709558186499,-11.778756577450366,15.335478588547819,-4.014866600309833,0.9907547967369826,-2.4118593385066807,2.907276385430969,-3.5019937599623936,-0.5161363325562532,2.1080205351580728,-2.3204438735705244,1.881560023695215,-1.1905553333481742,3.743996409865662,1.5231266945612638,99.52166479627014,42.7066556869996,28.341441870178194,22.832419082481692,23.295770888942194,18.546786357339577,18.021429470155798,13.720118586908413,12.06433070656405,11.208995192877522,11.929002715569762,9.912955679316669,9.965505971072202,10.150192435659035,11.325588623302457,11.011640900353507,9.954136938021282,10.653300170977289,11.355273104497787,11.219286288642994,-1.1760995085574695,-0.6023068147041211,0.6211181242451608,-0.23446945451549395,0.031460467527110195,0.3781454613640341,-0.1688736281464485,0.09839585675402875,0.34681735390119917,-0.03613523786424578,0.007232962086994525,0.1874499934450268,-0.04300202558877975,0.2403240796608427,0.04037217991358841,0.7042603407742667,0.6087182099156336,0.11832998856208957,0.19649117568408817,-0.0010636507244892552,1.715581268423123,0.7260878062064564,0.05012997049345458,0.3923769407906965,0.07514609205517475,1.6901072495297056,-0.3745299149806596,0.4023639733620117,-0.004527308636149474,0.3227914623157506,0.0004980892689112615,0.4970226642405411,0.2083942180129048,0.7390200382942278,0.3486823887359978,1.0648616866064797,1.174534358824567,0.635814522783726,1.2001193010098294,0.8516412348509266
13-MFCC.csv,-179.81756736086635,127.64358911213223,-56.67462015851902,48.58187334524196,-5.484442067249063,1.9079594396467114,-5.222904765731836,15.114270378028628,-6.551330528525414,-2.9727337339983477,5.342264009653562,-3.7280956869441706,-4.425978976783348,2.468726513899516,-5.014691445937649,-0.5414159245465016,5.971312643451835,-3.985651650890562,3.260712948169343,3.40779233736302,66.3448320817706,29.897268915226928,24.00919517033634,21.316447428819508,20.92409748428942,14.808157239222258,16.167959716113845,12.939448673488702,11.574165696854008,12.007823848740527,10.898922588779046,10.755959200885979,13.610447766229347,11.044773395010793,11.4537635100956,13.46928039853777,13.974880966405859,14.726845912539797,13.029826144778779,13.481031333399873,-2.233581450263553,-1.4693616411317183,0.451656866087976,-0.05303316995821923,0.07006274695001376,0.13387254159417383,-0.2595627739556267,-0.07546683404068047,0.29597176740488584,0.11512511895186948,-0.2936331107762,-0.04217216501557392,-0.0018812246744249735,0.023283013501195392,0.47796336797424677,0.6403382078901635,0.4239298257235177,0.35584561590981045,0.5177450538282898,0.2505621170082698,9.838244866162533,3.7807978348237627,-0.08887946925879486,0.6868318902388753,-0.37664283896606543,0.22426058949277028,-0.36524685554574887,-0.10436871500382416,0.48492331526707844,-0.07872262852677947,0.3804756675964689,1.3023633022393462,0.08601898993783319,0.36770180002921116,0.5463346270136302,0.43589072119419425,0.42105861849626924,0.051587384568197336,0.3225582749553686,0.1506423663041696
14-MFCC.csv,-180.75228996101544,117.94978938528685,-51.41017149103498,59.52760933122837,-10.245752265269545,11.323505123314552,-7.792267624531003,2.521790399575133,-6.297141386077258,-6.301293870444321,-4.2092167553557,-2.8344589179936786,2.663685201833834,-6.934862415647765,-1.5384603423736538,-2.1152412693733793,-4.737933905961901,-3.497907403248319,-3.2474431457264554,-6.286975315053753,71.69687173822595,30.270999575240683,21.165215710319487,17.710730976057366,17.50540929797795,15.53035321855353,12.064833716605468,10.500487365921984,9.28215891757695,10.667159489532317,10.10642366762247,11.054814084490044,9.052540705345459,9.000585342020333,10.76860104660436,12.123550927055488,10.256860355554911,8.861870180303951,9.632505124323268,10.230660415200026,-2.8496970396241004,-1.4559723038068655,0.5853155373029659,-0.5573469181964759,-0.1172231020627585,0.18099405015720005,-0.24728929576937192,0.05979942940718016,-0.0626403480269961,0.28872660239229764,0.19899683195268164,0.029836972763057294,0.2975271855344694,0.41028025446600974,0.593652840750512,0.4434860504458629,0.027098001837297464,-0.017623957666614853,0.06271324680695094,0.4229266097117975,11.848815877292274,3.7525040521220743,0.6555134634720106,1.761934149898948,-0.2623279734798838,-0.19998828186905504,-0.13511361898801644,-0.06634865322955719,0.014398060737928375,0.08696889936284169,0.325837366345493,-0.1368540727519192,0.5913269842262041,0.6755729351900173,0.6034651463608918,0.9428660839918601,0.21920483015524095,0.6354944628567383,0.3042191019169258,0.13238422188076093
15-MFCC.csv,-188.46061158391106,134.59374549247232,-43.967693040743754,38.4891619525613,-10.35160389777483,26.751260002478034,-15.493621112760989,15.334024448784081,-6.966723568623421,0.7149609705543836,-3.1392672667443873,-2.6141975145914316,-5.999768015818267,-6.341965406529592,4.59122915912725,-4.3495805061822175,8.819987370712129,-3.8385128513053264,3.9626399762544313,-4.646893567843185,65.9259129452402,28.2839862676279,21.81578152201124,16.579864985308564,16.29056864083735,14.22110925943917,14.998554992640509,11.056876294347308,10.726005043567818,12.029268526184465,9.84638463662618,9.308980616462742,9.108432171196206,11.163412678316256,14.112425868304111,12.911174510112575,12.516455734692824,11.751973607802881,10.049276408469218,11.529683997137486,-2.746380536212161,-1.040624355342267,0.6054721007187892,-0.12085654401476191,-0.0954553619308487,0.4153653264573681,0.13843197973035393,-0.006291491536533549,0.18727916050905902,0.49029382201916344,0.6370413355970435,-0.09934358826351158,0.051586436521659645,0.2958184145003068,0.17368971583742557,0.1351286905560916,0.4325331072772758,0.22615896583101266,0.22579338053189932,0.07696360685353923,12.217197238852371,2.9648887009771796,0.697530392555016,0.45079563874339845,-0.08640493672226857,0.45778584271161815,-0.07825579333746324,0.1078683985851816,0.26379771742412217,0.527796186219752,1.4895502113975132,0.04535793481247152,0.5043567193969714,0.2997362994067627,0.34840770015094646,-0.33481767696591236,-0.16189914659697724,-0.19146182474881623,0.41045077936158814,0.26430883010197803
16-MFCC.csv,-291.6690605585113,131.82035201258924,-18.689758732072907,34.79483954353178,4.417620140736464,15.549055989583042,-7.027535916705945,2.356743414402156,-0.8452698705555761,-3.7473444171975894,-5.787859216637611,1.4578417406698536,-2.84380493711487,-4.104140029389541,-3.4311108990058163,-4.650644968328645,-7.149868388174562,-1.5972598038584238,-1.2881665330915057,-2.848999492210314,144.82304980614953,61.567526558798676,23.935129281896494,22.30686964415824,14.233715935026359,12.012024776766955,14.51185157524303,12.274365084681532,10.864008153111266,10.225775180984412,11.597641744338235,9.601567051708379,11.41645567131358,7.694034937077821,7.3221236414011415,8.237222944873459,8.31442797918492,8.27561363845282,8.044786968056219,7.531414067548467,-1.1348646395548707,-1.326595984110505,0.08943718750277672,-0.26135747097052103,0.05249953657470517,0.3276323334355683,-1.1966881234108835,-0.14705666473541829,0.15693270028406653,-0.9568182353298226,-0.9113112582745021,0.44934219130666747,0.21607991614253616,-0.39439238333159143,0.22801529538906606,-0.4500873738519586,-0.4338724469758813,-0.2366637908399276,-0.2707841760515516,-0.3303963839543181,-0.08019488553192167,0.44258710182946803,-0.5120660342236643,-0.7497825153772082,-0.02740365937586331,-0.11893057081861258,3.0699334049983427,1.3272349742467457,0.9416120914402177,2.510229134331421,0.5987451648172653,0.9998270309286492,1.0690654788960576,0.6038773261876225,1.575080123584303,1.2035759145359761,-0.11510057911973837,0.8844917177710117,0.8767510146467163,0.5268061490587814
17-MFCC.csv,-234.52361797002115,139.56380725669348,-2.6071943270148847,36.38247005107172,6.479841141409917,25.226485865277944,-9.544026573527875,1.1934457186738698,6.431837925336857,-1.3179099155388037,-14.116016797724635,6.60615551171642,2.9492147019027493,-5.575260445482431,-1.100273172328894,3.859300425980256,-4.1263632396247285,-1.7533042047652063,-0.42363424344163053,-3.138693347164605,111.99381096329667,39.78603124744927,28.965198265210446,15.071943056643848,18.619742379253793,14.423577988549393,17.69534561515535,16.11471036276671,14.163950037408327,9.493907014262906,14.5678780464298,10.343149686089157,12.16008502669523,13.320975803472907,7.30922612623544,9.089794077345882,7.868963044679377,8.221983899621545,6.841805344944522,6.142852944194212,-0.9036788893019574,-1.6534843912561707,0.6306773742140249,0.08475776658521697,0.14744803825383873,-0.049979018718108836,0.14817209805747178,-0.6101181043264924,0.30721506691879175,0.2162259196254817,0.1336071233113179,0.04919321745637244,0.41511895359587586,-0.9977376008258517,0.17981818405020453,0.3106831308740987,-0.33187032104125197,-0.09497043105713616,-0.12963609980671462,0.005518043901836089,0.3182674647167869,3.2937773840939646,0.23709582822154962,1.347128964954496,-0.855100166286733,-0.33119897467746506,-0.14645557700069523,0.24449486819973343,0.08394759415457198,-0.028283794078510116,-0.34487143718430513,-0.07988412402931644,-0.20083870002150972,0.9880526032367363,0.08633684348304183,-0.13889458377270314,0.33950979741389986,0.2311656464192473,0.23711644003671672,0.1302079860293297
18-MFCC.csv,-242.4258505507979,200.31277828563697,-60.63207987853693,-4.796936965558856,24.74175626828245,-4.135575665712901,-10.570478770984959,-2.6792804714156766,-6.690201642473622,-8.272401083153328,-7.7674626840372305,-4.355859652195401,-2.932386796947735,-5.229223953166377,-5.205350089457181,-6.26278893402288,-5.6350744900408385,-4.655587933836498,-3.646424935837442,-6.219273256970393,59.065692708971625,23.09219288950613,28.765776873763212,19.574779849256593,15.437424171729564,11.10754870636324,11.271803920912813,10.270217544238927,9.012945327000368,8.317749464357565,8.650747925952368,9.466771924840732,9.371962258612086,9.09839840117068,9.055473580818145,8.315718675480648,7.639249741501474,7.258553049718183,7.219937727232343,6.985274273729455,-0.49912247692870876,-0.5137200505549192,0.5337001979025485,0.08483997787058924,-0.1495587579811356,-0.24754930718936755,-0.26296297445923034,-0.18223521195007053,0.04158682112511806,0.11167611059950096,0.09840042412358413,0.1070472995274318,0.24674730392237584,0.6398220414575607,0.5664799664138616,0.25882101140694475,0.14259086757524117,0.21530671261640832,0.2992063610291612,0.364751699477147,-0.00309585004035684,0.7317531331012082,-0.1428917511383796,-0.17238811077381655,-0.2740365631708004,0.4607239297041805,0.06666602524683629,-0.025648284383384734,0.037797332217783364,0.39138162404459687,-0.18262133763506405,-0.035179148383672754,0.5778220080278724,1.3882861480036257,0.33877822131911595,0.23032001730374674,0.11812063508174253,0.3386239172838077,0.9800533536090166,0.9265328082999207
19-MFCC.csv,-292.15875689309286,123.40434742188002,-62.46895690107934,46.12898894224457,5.8812859568384575,9.57004434609224,-8.220032692490337,14.332076844207377,-9.665612923531484,-4.506517702264307,2.897130925365972,-3.270265951966876,1.3646092510703232,-0.0932403266207432,-4.192762059648508,-4.55630481043268,2.6782386955597914,-3.19537375908574,-2.064740229303304,-4.030760803497042,75.61411697070902,32.73278504995926,23.82659733590057,19.744091607504576,19.838758704755893,16.356423010468532,14.632740974265339,12.710253552500406,12.007257067721527,11.947917849361684,11.570752665785582,10.980259449156106,11.943474624119988,11.629114376170977,10.741465001189006,10.688057221532553,11.406797409123499,11.004789198568368,11.397572609544493,11.086669823132809,-2.0243375475708554,-1.192976250131181,0.2820062433701181,-0.17462801101777417,-0.1427071371511039,0.06891367120679642,0.2588787039495053,0.16780859791050717,-0.2728082026115161,0.16306211172653387,0.2408457103261274,0.37718922055638177,0.31986346322563153,0.6865137706336951,0.3756841555472835,-0.3070275177631086,-0.0032665578950117195,0.22124727817564582,0.3908500826013335,0.27682111994430736,7.943252302910974,2.536978192216938,0.03459629553556676,0.07945245844106763,-0.24418706140854107,-0.35493093393875297,0.36865304071690463,-0.2812976308935986,-0.29730619222757104,-0.07591081558567936,0.6612709721369834,0.8066741583270574,0.18755717109788606,0.9587245245338778,0.5901526812112907,0.991910253072128,0.6003973395117237,0.005164215671427552,0.5556847689896167,0.5119707186551183
20-MFCC.csv,-181.30320967819628,102.0526364028331,-0.17102416392567707,51.25655465322441,-6.336484670646658,23.923538880497432,-5.965502149730526,15.13169409742969,-5.060888130797625,8.914865974585611,-1.698533493044343,8.600365118304866,-2.5828622611948435,1.536348742770173,-1.3924789687031955,2.664131517149966,-0.8053227965049434,2.971385890298258,1.3736339990257953,2.000269164779784,101.43377732795041,38.813436614949026,30.017310974665474,19.623563364202205,17.151503220614934,12.69548660374379,14.29439502087538,12.016743403519035,12.492508303420855,10.212805396502754,10.194530328572908,8.827224899126357,8.672737213619229,7.883719009517722,7.840710218593288,7.462527507604643,8.195601851290297,7.754669209072015,7.774583208090696,7.547111174140959,-0.6279462205602828,-0.28940134908046494,0.27700720640469206,0.7015764366754632,-0.1212150492161875,-0.08746478137436921,0.07127977854923731,0.1107426399142775,0.03557921823530473,-0.05086906384194981,-0.2847450007317588,0.0007498088271718718,-0.1555706207094584,-0.003054795348977711,0.131318615669801,-0.005433830898997295,0.29245046514099965,0.24732748478169514,0.179030499519639,0.06690576976032482,0.905861323966624,-0.35459575893855355,-0.37762578169112393,1.575581381656832,-0.0487117749932775,0.342897903375607,-0.34095636162673504,-0.08072064313380523,-0.30895496394930744,-0.03654875809258451,-0.10136296474032136,0.01498096923119352,-0.13134854558857212,0.1485656964236708,0.22799465743766323,0.35440491937715146,0.5077576352956772,0.42598989175437785,0.1727369121093405,0.2256603420446308
21-MFCC.csv,-202.21138410882446,110.50203299454512,-69.01847152769282,61.39147377778408,-4.172113034444467,15.185266681207748,-9.258728719683289,15.880695296901521,-0.8310693478783178,-3.2041767089038258,-3.2491116302064973,3.6079097702911445,3.1364972659335733,1.7857125598222459,1.613057849016959,-1.0705788288338665,-2.916687180190725,-0.7491989875417355,-3.543705113532697,-1.405788828348038,69.3421466166652,33.56571952620761,26.53212093383926,17.4935135202618,19.898619168600526,17.26370824384042,16.02633889903449,12.814502752663081,12.607881658662047,9.524475620152092,9.131608056505609,9.912860679694314,10.262887906053367,8.854023752523336,10.749111369054738,9.968246425672945,9.972265504132055,9.76301354922937,10.066414921367404,10.325377294355125,-2.4809211190415628,-1.01711854034265,-0.16620693656225957,0.05092663927206337,0.4797662096906497,0.07674941723548596,0.36383794221420296,-0.006050047229915205,-0.2625550846778052,0.0021128350468319498,-0.007267861389466294,-0.1042650397884534,0.2205872749433734,0.17234864917962991,0.7615345187165762,0.4448668095594798,-0.9713312701466953,-0.2347295264248009,-0.22735120228099254,0.5235756625386718,11.32433437441133,1.2329951992273167,0.3129991823178546,1.2838899413058598,-0.06961261883297887,-0.3891896591985877,-0.14736556624470332,-0.52252146223812,-0.015363713881893837,0.040632740114261434,0.2653356361859869,0.26739887328583656,0.20520773225044087,0.4437867523834047,1.357321634832092,2.3481595240671473,3.2031750494304263,1.3322688262591034,2.7115474263382278,2.0857200326253538
22-MFCC.csv,-213.54596209433396,141.45606027317118,-42.27276007146964,52.38770960571776,-7.739217947314732,10.723225135938057,-3.559885090126763,12.724144001253359,-5.46996529432208,-0.5066957920055244,-1.2223172526005495,-1.4002862260012132,-5.90708758435083,-3.7854964014902825,-3.516450614327483,-2.5935569549159374,-1.963071904656754,-4.5538446976865,-2.4856479037473624,-3.4358898503479955,85.75684628104118,31.250342463434528,26.439955950853683,18.1642087670793,19.091844225019333,17.074983649383356,14.484124013686667,11.217993203547021,11.183851584254889,10.409368567957433,10.587046018950957,9.007949980242394,10.257077013439092,9.155941452430186,9.148355452301223,9.41044488721197,9.782018019827351,9.04665654933143,9.366115001819741,10.482650557342021,-2.0440007833284892,-2.301746381647438,0.13186712476909115,-0.3190552076536847,-0.05192808092910198,0.31315825933521757,-0.1261803438273289,0.14383383586312035,-0.16859281365878306,0.27100537249068973,0.009924075983480015,-0.11072285605332496,-0.07602434831539245,-0.27146598538248956,0.14314564150815184,0.12917491108166573,0.8315831568348118,0.11807208203168977,0.8003606338092181,0.6164086279442375,6.980810255150288,7.464740010213973,0.16626193873629713,0.5525572180303193,-0.48779972278285344,0.1260999088953345,-0.22145851142938566,-0.15908981855633764,0.28364473832186654,0.42792609305402163,0.19068005410529887,0.31343752819786763,-0.010241947843406596,0.7793529357106963,0.3710464636756332,0.7153500172781255,2.4007646196216132,0.6259293337299874,2.2699080146659902,1.5917223824415832
23-MFCC.csv,-228.63566870566416,183.54724498079955,-39.94463712797936,8.930882583940525,25.459027942108488,-8.492074752552211,3.4807067812539834,3.747267514234421,-3.6522992251822504,0.9503033038367389,-2.821285847925459,-5.352515899297546,-7.640732030130737,-5.301525292895509,-5.5088915145404656,-5.240810573678824,-0.35117840836687614,-0.2557261250207757,-0.7791192328248093,-1.5103242054567865,62.815112461253946,27.952498141210576,30.63529301255829,19.620659441638757,13.307529730925154,12.669142396411306,11.830238819438362,9.377722715915125,8.547526010886129,10.14359609220242,8.629041301187012,8.320761394831909,9.218322352624753,8.865295555173905,9.261565326902431,9.99000142723972,10.762331036394217,11.822527507172644,11.21813106703867,9.723499788936515,-1.2455603277230818,-2.93558238397874,0.6626744841135055,-0.049769789504277615,0.06798306101536135,0.4598579930538931,-0.2125340837304544,-0.06920912801997636,-0.01010960571179245,0.05089873986870268,-0.02594091534788434,0.4059990263847304,0.1467380172256747,0.5061456049498786,0.9514290602458196,0.45292310061371327,0.5933732146189046,0.874576399758258,0.5095311315737725,0.5646248322571459,3.7407430355312976,15.131342484241172,-0.03959638598308457,-0.47169050146866587,0.13534119558768287,0.021339823020089632,-0.469130169210652,-0.01919088508399014,-0.12471223632247774,-0.06706302528036279,-0.03832546943351822,0.8388522451588964,0.11181586008255939,0.8423764524538275,1.9979807133805907,0.06580137832253685,0.47244229470718047,0.8100725828919635,0.4451179187556207,0.9872924076987442
24-MFCC.csv,-241.78055817631716,149.2503089452184,-19.799927025520194,40.42328691499778,-1.6543706942400689,14.129500672733993,-4.2694946993477405,10.185334110276814,-1.444645060654818,-4.427418999020366,0.6340031761441463,1.4973712451171157,5.043750833438788,-2.240877870568145,-2.0489400948796344,0.6952328505367018,-7.768426175672147,0.8875569464536326,-2.183571803855402,-3.7235986439022004,93.89648889622728,38.95983227422224,31.003687614216584,20.37283945799912,17.092714612065166,16.431964031840668,14.185111501576271,12.940849638485732,13.89418149141162,12.522638473061921,12.178351861704593,13.196835730907047,12.6530117071809,10.538208203635058,9.667047086686704,10.521621516843952,10.428011698934501,8.462698111836357,7.671184786571288,7.740291261240481,-0.981152672202229,-1.3353957580071616,0.2632565324795678,-0.5410722898888182,-0.1279707292569024,0.15489025784991928,0.19303304268589075,0.28679436124721563,0.5888282279193874,0.445094419992999,0.5103072728900564,0.4691119992060298,-0.303426756273811,0.38361507940263084,0.344959043360188,-0.0029828781033592166,0.021013507079123816,0.02413619506008465,-0.037442476099004016,0.1889394760776817,1.4447462304122194,3.00302515898721,-0.39546731743031005,0.3384496721395225,-0.02711857200363088,-0.07485310331261541,0.5748645721160353,0.22642073530266726,1.0136945309324936,1.238321354621954,1.0014864503540606,0.8243505070056485,1.2061293079733035,1.3495298155460942,1.0724617077225824,0.865875395714232,-0.03688337588928148,0.1802332952928456,0.21054401625485175,0.5531005804915576
25-MFCC.csv,-258.7238855178894,139.17006839919932,-57.794580584077096,30.174087911946877,1.6298069798643486,3.2208593639010137,-5.009722722440694,5.242746528400289,-6.240127382439571,-3.2699007158264966,-2.4926247284749725,-3.823210772015558,-13.590279879163086,-9.61326481154699,-6.486075545704994,-9.87900864959533,1.7364005303235308,-9.388045274797385,-7.090794135513667,-1.8805385654750073,78.01219666159956,31.8867031684736,26.50650330086676,22.004200599455704,16.84782309412546,12.861633026384146,15.726970600352347,11.128070208938361,10.15051305988662,12.43213274482533,12.375066447889642,11.169326161129426,10.831164368480346,9.642924447003795,9.481267836363639,10.323401225524119,9.767867519595855,10.689300427635077,11.970596563294674,11.38463131433592,-1.8474642734134772,-1.915957839317577,0.5167405201859051,0.31304773012650017,0.09994567992725813,0.3116165539345445,0.10897754389400498,0.23989110328738847,-0.4148259722619253,0.044350221634298956,-0.06614359825159787,0.624217513853325,0.4767700515538002,0.1308340501239631,0.3267912289325947,-0.03332510204130838,0.37851083406316033,0.21503130066065898,0.6787771760668943,0.3957012250673424,5.668743329280273,5.927771730283919,0.6203197914901857,-0.1483714585326057,-0.3137205082941552,0.7345010594651731,0.0988400419628288,0.1781619451880836,0.5985522315311274,0.22210746521811187,-0.1772880102338239,1.5043617456106264,0.9963317944334746,0.6497947107432673,0.8471945003125163,-0.014371041496154646,0.34188294694153587,0.055375648617767226,0.49345369468703293,0.650973890385607
26-MFCC.csv,-274.56309505931983,228.15815566331239,-20.275205084684913,-28.187546790013965,25.429210764172158,1.1807023841071493,-10.059754787948199,0.17563822353648026,-6.190987427096106,-5.4693628961937275,-2.9359127583948825,-9.539672109843917,-7.229600166427244,-3.8078010136176923,-6.264737225683135,-2.645899350924213,-0.10537389231994694,-2.8687553295898867,-1.9392424421602952,-1.8964308037684217,29.80142407252831,19.274422806202477,16.075216543413926,10.782750377427686,10.78467740028364,9.649241210868627,7.768407902052102,8.38501352499447,7.292985327511224,6.966246572940252,6.750768073593327,6.92750801246805,7.1369678388596824,7.290206667984697,7.7671346066032,7.807368245719592,7.808427173736117,8.562763075979435,9.124252451277252,8.482202925182538,-1.1348868473628153,-1.0394286701152873,0.1051623444054625,0.03953353105734106,-0.16726183742390086,-0.04589762442829166,-0.14006169621719256,0.15263471631997638,0.09363045124760637,0.2725056213827634,0.27060625053402854,-0.036300955000728614,0.24325002742952828,0.5562853283792202,0.647182624711122,0.5965003051907518,0.3121564893496663,0.42049348833611,0.6948016404612581,0.5106938061441963,3.489471182803881,3.8786029193546665,-0.29436702742218523,0.2970436054341423,0.25150534963912863,-0.04797713535293546,-0.043877702961316434,0.12708142057698746,0.08845184661609018,0.46088973462239435,0.33912319143850445,-0.0057120345730581334,0.11768145410324626,0.8348737448492392,0.7477053637178597,0.44134459518901137,-0.08339614723461519,0.15267885348568022,0.6090038932947266,0.40308649456941437
27-MFCC.csv,-300.2364961933502,146.71681764804032,11.905920811011077,36.242788947449135,15.137906037027195,6.872836294423904,4.66301858924619,2.7193275161341877,3.5311821721106025,-3.0330368794226286,-4.657952052662103,1.1743420504717148,-5.16072730242209,-1.6572655203851439,-5.644983820859515,-7.835014894186779,-3.4606969466463644,-5.648657266164827,1.1738209884576623,-0.5815042070546312,67.68034909604684,34.03122940795762,16.656507124894997,14.824544238605895,11.229921124728655,9.555904459113087,11.916825227432078,8.856168227267508,8.785018756660632,8.676587586001183,8.571512913853008,10.02095048164067,9.384147060766974,8.02396921782903,9.51490252828768,12.889289015358303,13.535846981646337,9.307446079151292,10.32124625938889,9.68602916067596,-1.1546129873524082,-2.1533189972407007,0.10407011352419476,-0.12891348641659311,-0.0030510690782403725,-0.04765965433333417,0.012199291725070728,0.23672947512811163,-0.40340568861359055,-0.200003745049039,0.37244754900621485,0.9328145128996865,1.1082042412241855,-0.08246008484620583,-0.066948376930467,-1.3907479699648253,-1.0102017546412054,0.03914767953635154,0.04921817576622021,0.12064677759032955,2.0358829957782283,5.927844263610549,0.6993386075585466,-0.26900150196751493,-0.21373109130684043,0.2615767449635853,-0.6438037447001763,-0.19000770923272858,0.3148918775259708,-0.16291865315686627,0.24911161092135226,0.769430242860417,2.003745021124726,-0.016179539509446172,0.8340911205376171,3.950411032276406,2.0424263044234245,-0.187218166010521,0.4141565837213057,-0.07740122772818081
28-MFCC.csv,-262.0366368860833,195.77277862259876,-44.826037179317254,-14.836060902017483,30.848446979246194,-0.09959890721508734,-13.38608715328378,-0.4647373897302168,-12.428827452397167,-12.907961066892494,-8.43964605524849,-8.268573699773741,-1.2572733796413396,1.059816532491962,-1.273291942715717,-2.38194443100545,-6.635709004329001,-13.696860884685012,-9.435147943022711,-1.3918026067000375,37.57867158829734,34.41571806343865,22.99104793656623,26.658341681438493,16.433769054503678,12.731170773725943,9.817960872186271,9.561630450330746,8.631401521900234,8.632471398211152,8.185458131883882,8.023027350840058,8.340102217035279,10.266826603708777,8.872840278478261,8.233089204109811,8.531169339554285,9.051311092553117,8.413335177650346,8.113297815597432,-0.4118390705829794,-1.0400868512194226,0.30280848559612716,1.1950465496838896,-1.3069659474378572,0.4299679764537483,0.4093356696819777,-0.26087461958127733,-0.1098632641269901,0.27887487812751005,-0.24230763644905598,-0.3277062340216391,0.10457357172913673,-0.11150730078789552,0.26106362982316705,0.3690261155341072,0.5049805438328895,0.47662569567215984,0.36984487238885205,0.2546197448379165,0.4050642146380432,0.723521712876515,-0.4686837532965642,1.382016800565634,2.9454453738592297,0.39997050707738824,0.4921493602178941,0.3562795924473874,-0.01291014913469768,0.2858981654945496,0.31786892486835505,0.45094022700834646,0.16876111731478227,0.11138164103306902,0.18745739009624574,0.5857341992576206,0.3013938650694148,0.3169421124382179,0.2756816033464973,0.47006638905102527
29-MFCC.csv,-289.67562860068017,197.72887763777288,-40.27947558108494,-15.423190993258995,34.938854849939204,-13.174989691564019,-21.57160686910331,2.0826438863261916,-10.597461769357563,-16.31133705916585,-6.889247880177401,-11.274338876919314,-11.242540245641095,-6.390717515313439,-12.133364257287075,-14.07394445289634,-9.820762356522293,-10.60020052345869,-10.499632408903867,-8.300018179252827,53.494405516596956,30.176480000356346,27.27090733000385,13.148088821373502,13.671698244629777,12.63091983466279,9.526473804549575,9.2848453099304,8.674331307463998,9.859353635598412,9.484807241285928,9.86414757782386,8.370214098787311,7.680836108625358,8.57970257357969,8.113958001388067,6.769338702331234,6.784952305835072,6.030932092380225,5.922995358120919,-2.052319069360116,-3.024821690002697,0.4358182041053839,0.5902167456823585,-0.1244232547400879,0.14364439720134062,0.8576708079678085,0.16081038144556045,0.02132266775685409,0.2070249975122171,0.4846744344553238,-0.2565679101631991,0.057622515402166535,0.03174781364104602,0.11822056765284755,0.21187968657814213,0.147832066567764,0.112134866668056,-0.0674545806796956,0.10516903476252344,6.291118812769563,13.074666334233813,0.08965910415339229,0.9345265628410107,0.0069409677034819595,-0.2657699740577377,1.802536983609984,-0.011977143300260895,0.43302656610734,0.4433117230543231,0.5367117175325871,0.732267764657653,1.041374003485323,0.9682042711843439,0.8280206862328297,0.6690514543069752,0.2076910044426401,0.3826681876438496,0.17212650009972874,0.2599037257938228
30-MFCC.csv,-237.3081320990696,139.6376240128066,-46.653505438811905,30.504778472325153,4.574846041240007,7.784842399582281,1.1899689688955448,7.960593842354064,-5.573358463600991,-9.629945422261788,3.6996062130130567,0.3555949704538323,-4.750181105308992,-0.806693381193672,-0.2917808292758557,-3.4231665798075577,0.2348752158162944,-3.294260943853381,-6.460665340036193,-7.440656340311332,73.00465814030007,26.925624934092617,25.655132416967366,19.223751880139467,16.07992983111743,11.52561356695648,11.957351400202663,12.835707242322023,10.214240112642846,9.637072133028216,10.896151431766583,9.336440430868226,10.548891858021154,9.231377772064567,8.898705057437315,8.897659424216208,8.486870489366483,9.45805607683361,8.473726310286375,9.995925568681308,-1.3924482075634363,-2.4686509937215377,0.2945134713897185,-0.007152358280037903,-0.2959882359385292,0.2842018589546494,-0.2536183933667039,0.4175473739917333,-0.08031062888471245,0.03366787587185318,0.11158023569043049,-0.023752921492947953,0.05162570416469534,0.014913924875602067,-0.024177727443761864,-0.03757227916981638,0.1328804368425167,0.21118700377612132,0.2532100859647158,0.4059486504418885,4.090627867551019,10.252460734095092,-0.3658967246197711,-0.45925937823159124,-0.13380267560888592,0.8510797416464975,-0.12216195207017444,0.22700069898621056,0.01107787127960913,-0.08248121978649525,-0.22869636882099043,0.1217302926541306,0.1958530940458938,0.3063210648688095,0.10453256418805212,0.34573190084130134,0.45709417600738567,0.20881862371338844,0.9435915834533093,0.8251357709111442
31-MFCC.csv,-249.58405987283948,129.59221016676295,3.3965793466975995,41.21356003794013,-21.334167729301452,23.90396696763646,-13.273830357484737,12.736882827768081,-9.843165123344667,-0.2926858889563413,-12.696129371361133,0.7311896340102193,-9.042370068937947,-1.9751788005572828,-7.010319426968251,-5.138718606560984,-4.3648984166897105,-4.494788623710715,2.7358528566675924,3.6783469161053053,118.9609526355614,41.037086260187294,17.252538460188266,21.692321861374158,13.012094379605857,18.45882094576308,11.52286530782434,15.324374103831145,12.905687218679828,15.255159857754808,10.83060082103754,10.79191658552492,10.177431052918896,10.810363047038292,10.399507455151625,8.291692667217616,8.407551734590692,8.94849754350784,8.759308202068503,9.932087077826678,-1.3585785601908942,-0.6797775215161617,0.7328276962479219,-0.8120541888735668,0.24841198554892557,-0.8150334275106647,0.15219285487693446,-0.08136678554486762,-0.20168163833620828,-0.5663624353013295,-0.19630344979512773,0.0029329078690317487,-0.3303480995006753,-0.2178483411526557,-0.014034092301405815,-0.043816764548584866,-0.13805547515086058,0.2805512983216007,0.5695975910763981,0.8538929359466302,1.2117261876137366,1.0790396891098215,0.8798435262252262,-0.1319445505222676,-0.2719502278042998,0.13475451006365446,-0.2512449351584958,-0.5399788007043385,-0.2635367145878216,0.1752514157922107,-0.09909558987939704,0.16557508709852264,-0.07703702941184609,0.18592609331651122,-0.07370151550430215,0.008491981334838528,0.02094092249370405,0.06484937819085923,0.6579160034332303,0.6144240673570893
32-MFCC.csv,-209.59829620168045,122.77819854763308,-24.613982074831185,47.40994748847119,8.83777272493424,18.728861663539107,-3.7829807965353988,19.368632578990063,-7.0576099027195065,4.44360072296218,-7.864526316720296,0.06643136136901649,-2.6853486712659937,1.3166448190243076,-6.018172876576996,0.07026583075311248,-7.436831804421924,-2.001463831568411,-4.085258066047708,-4.197394165164954,93.88466013774058,34.56003259535333,33.55504618882606,22.67434930267228,20.13143126178738,14.993199286137633,14.220700628416438,13.941345502519052,12.492202785381474,12.04241870015809,11.119055773875495,13.290794534615225,13.234078234548381,11.896877497045764,12.416454129565096,11.545918555355495,13.003672759750872,11.251386813374058,9.949146190766946,10.163594427709095,-0.822179349150468,-0.830031993842025,0.6305715173579544,-0.07810146198203748,0.041683679961710386,-0.1421353910296418,0.05401770355076209,0.13198361832900582,0.04599520369710642,0.26406100656588494,0.46779738332922577,0.3192825182398155,0.3164369136356431,0.38686983875856373,0.9074153519427064,0.5942320485326367,1.1014797602202349,0.5863423346579014,0.3051109362407962,0.7851715895412031,1.646456392716844,1.2687185345854952,0.554551540810043,0.0852192807167027,-0.48949303440050196,0.020218973770901982,0.1923052008685806,0.08898409421937492,-0.07149290610496362,1.0829414263837918,1.2772740606118353,2.0697861712736816,0.7380384022791797,1.4634498998321317,3.130794161256101,2.0999248613630423,4.65249403648825,2.9496742209116396,2.1206158134508937,2.7066626193369143
33-MFCC.csv,-249.71496732798815,115.09544780520883,-50.38658268268098,49.44071614919701,6.071020120295762,0.2118044438913135,-9.09786314260875,11.847553786135203,-1.2855184930953607,-5.189024539022526,-0.6835784481306871,-5.096513279092226,-4.9254815148743605,0.6917158886763883,-2.690624162565873,4.834702407772648,7.5293109237010905,-0.8423856688240973,4.107655958752204,4.938225097965538,75.26672644515241,31.016823859029753,29.84195377549283,24.054712584781857,21.989919030978108,17.709815006103796,16.7066842872412,13.341041038968038,9.804204038809084,13.469419650488863,11.994044931546336,12.64811795703806,14.821434275781941,14.877721910373616,15.873741254796222,14.776109223191764,16.347993707464816,16.92274747772732,17.016202917322268,17.289795824774025,-1.6860880448557296,-1.2202383114386601,0.3430554760668961,0.06520977811219297,-0.03597291870518512,0.15466828852161837,-0.033848672029172105,0.1788499057779822,-0.08612435092786913,-0.12511653224058988,-0.1982204972791082,0.04760375243566408,0.10637998509817033,0.39545310662087463,0.6187835646283315,0.5159311503944264,0.383349991932156,-0.14540744137895295,-0.23513251005523406,0.16168458576111644,4.841801692261097,2.807407362763114,-0.46913152811910575,-0.2427351015121979,-0.6013978697066307,0.05732361294171362,-0.31500666088420504,-0.1337796116437011,0.07834909954675373,0.41402371174333696,0.7870260346716154,0.4407700741406093,1.1633828219452171,0.7706601653130369,0.25889771851454,0.43193103202275074,-0.36204730253623607,-0.011584959079182777,0.3568040545951954,-0.053149538431617405
34-MFCC.csv,-264.4388778817959,130.56210291209192,-12.473621297217617,28.09263220998825,-11.431106223997462,13.99777856358436,-17.972220413744807,5.077435726656728,-10.527490755738658,-3.713459698939407,-11.063491322196969,-0.2318428311965461,-5.903874409085376,-2.002803476047004,-1.2465469545679613,-4.0783482145120535,-1.379032637117556,-4.682739017446432,0.7225551659417686,-3.3271313670933145,131.42087540809013,37.177246958929246,33.81757709671968,24.68359186802164,20.267119514565415,23.46829026481977,14.039597092364408,16.37322128717321,11.065204397632852,14.516887253529687,9.600090918511508,11.102459674219569,9.707992154596448,10.052556512058441,10.132336713377297,9.477139016544108,8.995503562987857,8.025812711740558,8.499472161785693,8.227403741426809,-0.44384535246572243,-1.0849373904230963,-0.13046213416803826,-0.5241764707925104,-0.04911102001880066,-0.9182266871150601,-0.09368859249180622,0.026957303523734107,-0.09196135244736138,0.11416847345208742,-0.06892015983864924,0.19928479471466795,0.954337089377087,1.6155317545363381,1.4167016302119313,0.7863353301687512,0.15229147814224173,0.09407320240261344,0.027289372163968113,0.5072794476855902,-0.5385046836661846,1.5423231695312811,-0.558040889862339,0.5439050148206284,-0.47234728287954697,0.48662447779582907,-0.5126526251091126,-0.2305885773990508,0.09823202634693207,-0.417111783434454,0.30350973472412424,0.33641043415879723,2.832370682964041,6.618798459655393,3.9302373627437355,1.3382447726316204,-0.12562236517282743,0.4356863145863348,0.5577290989443608,1.272713040301408
35-MFCC.csv,-210.63835563101898,149.44367908234202,-6.940869963789545,35.597305532867615,-8.700658698227004,21.829635212791857,-4.993530135743643,19.043410474906242,0.06333657906206976,3.6020714081406027,-7.868268812620763,5.0774954833334425,-8.268780345722385,-5.875685956333296,-3.852396585928362,-9.052941102527615,-0.3616105332147053,-6.296980371951373,-4.60558380821842,0.10521242629976185,79.33282961774394,30.14848043510753,22.681576571125518,15.105250260266448,16.35488288268901,11.345505510394622,15.546153475790202,12.244967275701368,9.902638022543577,12.153020768290052,9.282742334436117,13.155615486366605,8.5761789983299,8.88463657047925,8.033371544818213,12.788163265610676,11.277675475822347,10.19528833471558,12.10128281317017,12.360970800977244,-2.315533250769564,-2.138009450177202,0.8898197533382608,0.07467996783977394,0.04097172552402826,0.19386740953972925,-0.24276038604591832,-0.019868690644510835,-0.3095365035776567,-0.07814965751832546,-0.08816688615172963,-0.5565509988054302,-0.20151998766789453,-0.00032949493320876563,-0.034528704929632004,1.111604307034813,0.502515344357582,-0.035197021427182,0.5623935286444051,0.09270806518675659,7.006058064878486,8.0205199231135,1.860812551793956,0.3751724406528245,-0.33053812313368747,0.2811435485406162,-0.44405543334955544,-0.1801199467430017,0.08631356734546358,-0.3863332331341285,0.01367337140234337,0.4607163433352506,-0.0862180662187062,0.5915771933672875,0.10525524676193232,2.1208179047030433,0.7470160178102416,0.04590245769151968,0.8591465804524234,0.32315041268124656
36-MFCC.csv,-182.4957884389948,149.33392290493157,-67.4410849641825,62.12839279702849,-3.072479890828993,5.958277979101384,2.403044562108653,6.950452286229016,3.2595034320526834,-0.8203404645169802,-1.5770979074225866,-3.753695961446936,2.4284477872808243,-12.17698485182038,2.064775088908527,-2.7481876714575586,-3.7329247835518027,-0.46077017674795245,-2.5683844140067116,-3.465955517194449,71.8015024676447,28.47559700894393,25.509526678916856,20.6004660637735,19.031019465499355,13.22190339906554,12.768985852410468,10.627872384202673,10.351132631024992,10.057478805903212,9.063653414491743,9.358638675417742,11.20933744479441,11.192781843050053,10.41535080027355,9.528369139404855,10.595994313442109,10.564752422571614,9.974397120698296,8.958082024164561,-2.208638029604784,-1.489670721317659,1.226685052773104,-0.12400344749823655,0.1716662737443357,0.2593940228809078,-0.10936862682774175,-0.2518651166510675,0.2106670295403973,0.6278400354787411,0.08509782047165794,0.22965256236067388,0.285935258766696,0.6173624345776038,0.567685259641191,0.2495203542867077,0.384773216998403,0.2662982606511014,0.4549338587604315,0.35444680095059133,8.6249037409078,6.7194916192581395,3.5672172346969697,0.4397684071271346,-0.049232041028412166,0.3593979719711071,0.15109370987399995,0.5863512725238644,0.7774182748529954,1.2336330334648489,0.4933272722688251,0.8476263644245252,-9.654840507389295e-05,1.0905426080778051,0.8824415860131993,0.3544342312610782,0.18375787614517547,0.5018593632294293,0.6334274465421297,0.7174975633246068
37-MFCC.csv,-176.7258215089956,119.91974820276731,-53.19833577790973,62.807682311078096,-1.1570931889832545,19.68420047878254,-15.47394789945747,-2.2982489888315887,0.836911005640442,-9.504643587693861,-11.024560267205327,-0.17902058884087446,1.9399811093437838,-7.985136093449017,-3.8821019890241497,-0.3567334057996937,-5.919608495955551,-5.071854237163088,-4.840172917477978,0.876894495984892,78.52825719751114,33.23315132561278,24.01924141445368,20.26796107579561,20.953419195099436,17.830607217859736,13.897921514479952,13.376927375039656,11.21146516328939,12.830868262714635,10.940582022698672,11.35971931032747,10.308905339770543,9.957103312355175,7.803062635679337,8.935835262582753,9.13859465853077,9.582393946791258,7.7168113065183,8.079894141844896,-2.4315394703757613,-1.58786194356441,0.40040880010597496,-0.13103262613962913,-0.14207093681832939,0.020294926392023203,-0.10327792886323671,-0.4875569841212905,0.0007040681318002845,-0.14216683497350313,-0.3179894151797198,0.10878321718039435,0.1308550269480785,0.20098345387526598,-0.04456807796670271,0.1682598494356287,0.07368385416174673,-0.09271309317009098,0.22610701733679153,0.11376115561440231,9.046149697421583,3.5045552410626573,-0.042224510680088034,2.2512630649588554,-0.278600457053626,-0.5753146817490165,-0.5100139147605804,0.38252846470293767,-0.0520544994414851,-0.23297135759359033,0.5457315365525148,-0.2559473230818772,-0.012867800288940856,0.15403481371064398,0.07596204758100633,0.3114136396284226,0.059117517157044386,-0.1300812636771651,0.7752405727075873,0.5417394618465994
38-MFCC.csv,-292.2206344029606,198.44558766434713,-15.109803937267579,-10.039021168333,23.16799115973484,-12.591418971359914,-12.845184087889853,-0.05855881284021867,-14.620568336654365,-14.926637068490022,-7.051536098451185,-9.983332693929668,-8.72575061629269,-5.88935862014976,-5.999658510461907,-3.83534417643957,-3.1036407563351407,-3.9692462008873663,-3.81154813214478,-3.7060020913468406,48.13123581515939,33.227921372446694,26.65997450182785,18.015792657095513,16.35091959217191,13.026044059234184,11.850818242771892,10.884608617488569,10.056436935761939,10.048379060794003,10.371790454294576,9.763701380933917,10.97037922143034,12.687914517875397,13.562891896458742,13.310497922514038,13.02143126500959,13.881629557849461,14.179333637406396,13.711301529451337,-2.6543109216914034,-3.268124217847111,0.4961468303220921,0.2778311957001406,0.1485413298892569,-0.09745130490243298,-0.10714795316953798,0.06430181432763699,-0.13987277075881027,-0.20696216236000323,-0.0905380062033784,-0.07251040398107526,0.43845258155101297,1.0482125219735365,0.7805299960708758,0.8538060935983585,1.0128647859790936,0.9317807899295277,0.5478799921835497,0.4221642600457441,11.204477229762773,15.885274753743683,-0.07666296379229642,-0.06490572854913612,-0.256291670653944,-0.1762191584553583,0.10643603742404872,0.045758926634502206,0.2416834186086474,0.1680603690791007,0.1287690028166404,0.09203775244033352,0.9070239487207208,2.1554622714230405,1.0060754655879247,0.8454885432375749,1.4763556874006056,1.2187581354118944,1.2791037079996794,0.9342201623771613
39-MFCC.csv,-200.1800900025648,109.50763404276438,-56.916593950704936,55.438645179727395,-7.771873330285177,8.881264007075854,-6.9617437669027264,8.573432597402123,-12.005158630422622,-0.8885076438892751,0.2000980304882926,-8.081958229301543,-9.588245976458536,-5.317054340322101,-1.1500220461122728,-1.0323350094697445,5.748428093111129,2.4467255478639878,3.1893590130070146,-2.1782331511958626,80.2358633166783,30.185515599568955,25.721573680768874,19.53049175196339,19.48465508600987,15.641708553349602,13.910108752234411,12.5332712064417,12.21384896296208,10.384700524335292,12.053287495560099,10.403880103080677,11.562616991375972,10.785916602241194,12.65502630065864,13.531616244684495,13.774256434343032,13.46133418531938,14.776898493744374,15.016232886745696,-2.1741964117005796,-1.0274717640069602,0.6298068612060358,-0.10445361381727238,-0.21008110516889572,-0.045988690907544455,0.15912472392167135,0.25695174718630576,-0.12218226812373653,0.0014795548303360594,0.07529716682750129,-0.13945401597501847,0.19524763655745317,0.7642514755102158,0.830413305015777,0.719798990393221,0.6261791486448056,0.4595294771856755,0.351173219407401,-0.19489371699367913,7.043049596107052,2.0662202647060526,0.352946590103155,0.4786836390364755,0.1524657186842613,-0.17200867114370721,0.061289668625647664,0.13629692959259865,-0.2068757151359466,0.16584967697568764,0.12896793896187164,-0.06271567516800358,0.5905095538456466,2.265966228323116,1.6177527520282458,0.5929020071698035,-0.0016314063042104365,0.5693788328473257,0.399804451177336,0.4266840634737763
40-MFCC.csv,-238.4396635973748,164.5439620287348,-56.00763413374077,42.0648600716025,0.2013425655544591,-4.232202364435482,6.050234979149913,-4.336655777867114,3.777507452890332,-6.477675274373182,-3.3585995638619672,-0.7274778111282382,-8.636858556140467,-3.9155999524488037,-2.1205145995633283,0.5436672197521546,3.6277525559283355,1.4526597507394214,2.6730105588516713,-1.3146980756020037,81.18864890265331,35.392638839638174,34.966161239973516,23.447115288985728,17.82476849784468,13.193313714592545,12.416915717113437,11.046210432942352,9.34987168551976,11.886204713053637,10.242692904546903,8.869321983331227,9.825013836696126,10.47553408842961,11.798317298084621,12.058335965085327,11.58333198309138,11.110306615172648,12.086174446947867,11.970969291508869,-2.0588208956631373,-1.9911230323371867,1.9677104642829613,-1.0281585859029587,0.08155693371168202,-0.261159481878903,-0.2963213406991994,-0.09499252921659389,0.1010168769620345,0.846568179162684,0.8736574534826532,0.14617673874757142,0.13652137857400606,0.26193957266526796,0.6394203672668064,0.6516836771355211,0.41160721478736284,0.4450965792062131,0.6179068388653837,0.44482966085424486,5.308146530517298,6.735908000373531,5.368684628587632,2.1274939816010914,0.2245196516876904,0.8060283677883047,0.1374499573181156,-0.08136855075319449,0.06522779329251538,1.8476788785585372,3.1028992609404717,0.978389934885671,0.19880164678383716,0.5646737870874441,0.45138218998194457,0.2864975591401313,0.04708060348210763,0.20906813599155827,0.6064788927737861,0.12460572307516182
41-MFCC.csv,-181.59148724828086,139.56090777119599,-38.00811128524213,53.22277725424487,-2.813106584865294,10.728423201564723,3.0446560866642027,7.7514714909372,-10.2191436696223,-3.2942199869748325,-0.38643958816706947,-1.8595013587739069,-11.695499905083155,-0.18994552737505566,-1.8689747588913752,-1.0542654344420703,3.628396685414713,-1.9723738204371144,0.008729640413000525,1.8417967022982225,81.01757086817004,34.979667284454315,27.972227897415202,21.938026573914474,19.53410072176167,19.263704665121047,14.767983916646521,16.523277413467444,12.094550221509955,12.564261566711663,11.482319739459323,12.086333277379643,11.594602990404125,12.113038393442878,12.829870609090229,12.472326926236313,11.537557481737192,11.114055127177556,10.812262738762035,12.098650035440484,-2.1171986677815484,-1.51544818074638,0.7411277185293192,0.09769124512312086,-0.22604831427052552,0.2676095214376227,-0.21674983968748543,-0.6772184868885133,-0.09100676419337062,0.27193368744795426,-0.2625071822304299,-0.21700436144483967,0.30740901707353036,0.6272774428446769,0.21073273493228864,0.3690489025913453,0.6712882521581673,0.5577036268504352,0.1738610956300893,-0.08475522362655442,6.973160329841085,3.4935489968944555,0.6799023908091781,0.19018076126219574,-0.20328596371994712,-0.12165387645372672,-0.06364278656323208,0.5359226324179405,0.37305232496794494,0.39398930301727875,0.40458658995717434,0.37512756968229866,1.030760147433198,1.8988730234883624,0.9108035330775239,0.4838563518953647,1.012435854855683,0.9180567288880055,0.7752890261325431,0.7555543501917414
42-MFCC.csv,-229.97461461647134,145.8924155678316,-26.28240615893847,35.2184641175719,1.1823969386632531,-1.140952741617864,-5.079452237109388,13.169789289234831,-3.3925274254926387,-3.415610547279828,-9.740481003856491,-6.60510487213948,-13.362653310636626,-6.230088170895055,-3.653279902076064,-1.3922701025141013,0.6088618828980198,-2.6088146560217176,-3.340687425509289,2.349962144368827,79.66567085536839,35.29629481618365,22.621840440705217,16.918139989395264,14.968741575070682,12.782506670665601,13.962556974749887,11.591481782154506,12.834032218379328,13.305039624246644,12.91369224175146,12.273366523316785,10.211323114259157,11.34103306682287,12.142499651808851,12.12678005571943,10.778659840127808,12.11705470311783,13.444003814478513,13.458361447358287,-1.7624311717477283,-1.861900485690013,0.08228326784942581,0.11899942864584498,-0.3110927442650797,0.5147370971519407,-0.03948960726943126,-0.10976248651784129,-0.40063432578766006,0.5158881580493854,-0.4558115837916494,0.4587046661458365,0.23929070129312094,0.8202692956619558,0.8840111824095616,0.43796908008696617,0.4030458230669877,0.5124024682142192,0.45172482717219753,0.3997348514601279,5.542616554257075,4.794420860426815,-0.22080694619156116,0.4786355939735776,0.2802956131960346,0.840116670308936,-0.24716567243218535,-0.21780511782799783,0.26701134480665667,0.14238714485366,0.3345375565844848,1.0739870253630257,0.3517204823189517,1.6336813929181768,1.1002535029056282,0.15965181747150847,0.20789181611983,0.62543953597338,0.2663180985583695,0.1125941731065292
43-MFCC.csv,-215.01596332498048,131.07768541076044,-51.51304026079682,50.67217770557037,-1.9504461085293374,5.79540027564507,-1.3492737742318377,7.692210720153314,-9.557835220956594,-7.424835857895283,1.481493131785237,-9.048411480243217,-10.340781791119586,1.716434797248284,3.8322944723370234,0.11247941495814204,7.521022872001607,-0.12976031111123199,-4.986765175494891,-8.993215374652872,77.91092153662422,33.55295289130126,28.168190876066358,20.86707134291214,19.354505028389845,15.876990332594897,14.824514000883857,10.686590538821534,13.925050774526758,10.9693090949937,12.421427799888269,10.41301713524698,11.064571205107663,11.115578982919187,12.510247740175355,12.049483652085705,13.700460384437136,12.562195769429662,13.731715480904086,13.718093567158586,-2.330346587384306,-1.6081723579264242,1.1952834572192557,-0.0036092271694355155,-0.3426371294938267,0.44819803791846147,0.14934274698268662,0.09118473814226852,-0.4062016831277463,-0.03343571583438908,0.21841723813397151,-0.13549820301781362,-0.15540552435485402,0.2706348531844905,0.1490763221826039,0.05366942694303623,0.09708082551820132,-0.13903083595343363,-0.06833200390098937,0.10266424649349845,7.825653191553773,4.16153038878557,2.0407119758593617,0.7328273631232185,-0.006607110613740197,0.43422505478297513,0.011598318061314838,-0.15340229675683847,0.22744361099358246,0.18071636130469004,-0.053753061923627055,-0.041644366363421614,0.4949329969339562,0.4125754672058237,0.15324166468914502,0.042249045777102534,0.11135557154914855,0.6516331560522257,-0.0335429361551034,-0.2167525057960149
44-MFCC.csv,-186.01560611115036,114.61256676647284,-16.86310165539644,45.17317127752554,-19.268390163695265,24.892112165331262,-17.53215626964331,18.117795269370834,-5.91496125091479,8.409551812921404,1.6994420503995498,4.581222093380971,6.526737570585261,-2.853680041998645,7.43571585352027,-3.441465380849909,7.676549338909676,-4.801751914964809,3.932493666660817,-3.7291177345152904,116.65772768149128,36.63665502438123,37.2322495090246,24.21228907470403,29.218347892240764,18.676815146577063,19.99228181318443,13.870236432977007,14.009145640300595,10.082137793773015,10.829956044676539,9.25488802538303,8.544001895918543,8.696342429940099,8.151191885059122,7.805492320335672,7.497426879756696,8.118966917232619,7.187891602576001,9.230557933589543,-0.7300894460750926,-1.1349033608253514,0.7387879693442363,0.08687503433186425,-0.1505020957609564,0.05598836325302366,-0.08846184439289999,0.1707350264979907,0.0725543643637293,-0.19828019653934675,0.4190938782250552,0.2346176104750227,0.16938226286726485,-0.1403198296046516,-0.18890770857955616,-0.08035204855692732,-0.39251921255600597,-0.0005707927948230348,0.10732219507068579,0.08345827989735675,0.11022680459480627,2.1744664091228048,0.064879487898585,0.049130785561634305,-0.7114787701016421,-0.43393193277079156,-0.5125816579867513,-0.0009821303402373083,0.12097291357324558,0.27879329669469755,0.3218092844199876,0.5831387433398749,0.34779210592879606,0.446937326892789,0.09072366024971279,0.12255878810592291,0.9106415524425713,-0.10847830793835023,0.5267964924649373,-0.20181041559170776
45-MFCC.csv,-161.7589229071441,134.65586720760973,-13.360507686376609,38.625932566769265,-5.553115649300362,17.628160316860228,-6.203108930948694,12.302524003481889,-4.656573231165266,2.0370838308240815,-4.3092139472525135,5.427887347911471,-3.649730869985192,-2.4019799056239663,0.3263590251076601,-1.8645716762816553,2.290950121686614,-1.1403536113043504,4.6806635322912,-2.154596811551047,133.0960915174698,32.31815904704062,29.72133855947162,17.609118777745064,17.09748506244993,10.905769559129904,11.20294563302138,13.538048042201265,10.180314946266744,11.36089526231987,8.60883228568229,9.035655484092812,7.2790367912741845,8.146909385015153,7.052523602782398,6.417779629263429,8.136502887425827,7.562630154795053,7.82308437053768,7.50430728918357,-0.6470954826463158,-1.9302852967289659,0.37340838486526795,-0.5423053876913954,0.6006359889472432,-0.2560151189692319,-0.11198366019494918,-0.1285173069524822,0.2025380629424912,-0.24789066427313602,-0.07097789291439333,0.1726019634486202,0.2597050058136009,0.1835048812182522,0.19220177350427178,0.1671886748403492,-0.18875224672411972,0.3681951174635343,0.010124748596123853,0.4045290487516086,-0.7423348738289608,4.535798146383362,-0.46564405254471275,0.6615251756786593,0.15130492624637437,0.8401784257749756,0.2720188079963166,-0.5429346814110754,0.5523294086193475,0.17172516028869333,0.06542568979217922,0.30937716688624084,0.8239958237425133,1.1804076478888175,0.5471394566881145,0.390232777944183,0.3662589640307692,0.6819250631529403,0.18897289007531626,1.0332858521847297
46-MFCC.csv,-258.0944632923823,183.75582551956117,-64.22122673917458,23.275604320964025,17.30119834327109,-2.095352181566212,-2.2016141292741223,-4.865383743912404,-4.218670284124272,-6.146022022254401,-7.862329257921359,-1.4392743122375826,-2.993575128314458,-5.425938345346939,-5.834516494261308,-8.356239409477144,-5.74104687480455,-4.443906063002038,-3.2043109088841693,-6.582368973645043,60.98208037716908,22.713916990026334,21.49283890881459,18.183382338421843,15.119234650646284,11.648051045566705,13.226910101593313,10.314179924250201,8.753179089674019,10.235005189849181,8.91027459997207,8.744585607730023,8.789912504562643,8.57848473019549,8.275663949722418,8.08032716546721,7.264212957572351,6.418708489487018,6.197247254871311,6.550275029020785,-1.212273689417677,-1.4661394606562446,1.1852001773531384,0.04126651894471662,-0.21165114573849597,0.10863725505340273,0.21813666025123118,0.13384487134125575,0.1405161363026597,-0.1356542990812007,0.08717628034752586,-0.14152896500187528,0.2156735106783002,0.277010846844864,0.09601659463938403,-0.0073820204332032,0.1281851141865584,-0.13125735299404107,0.07855671744958681,0.06928659971676733,2.7563884262984106,6.181861913050385,2.247365845194054,-0.08850066126043554,-0.27436906990146426,-0.09324997445409133,-0.06643554314613453,0.14460685413495655,-0.13210544658427859,0.2429872246212379,0.30862117203201844,0.4189699403053151,0.4274389383660946,0.11287079230153685,0.030587985175406285,0.24103091140912314,-0.03137629361274419,0.7609086857900813,0.012174466938522865,-0.07887662456924494
